tree
version=v4
num_class=1
num_tree_per_iteration=1
label_index=0
max_feature_idx=18
objective=binary sigmoid:1
feature_names=sim_change_frequency network_type new_device_login time_since_login_seconds is_smurf_pattern recent_cashins_24h is_post_downtime receiver_risk_score is_legit_merchant is_mule_destination merchant_name_risk Token_latency_seconds geo_velocity_kmh distance_from_last_cashout_km transaction_hour is_night_transaction cashout_interval_hours amount transaction_type
feature_infos=[0:20] [0:1] [0:1] [0:3596] [0:1] [0:12] [0:1] [0:1] [0:1] [0:1] [0:1] [5:595] [0:471.47000000000003] [0:472.25999999999999] [0:23] [0:1] [1:24] [5.9800000000000004:1227.2] [0:5]
tree_sizes=1598 1937 1843 2072 2078 1848 1955 1937 2072 2080 2407 1850 1848 2169 2054 1850 2178 2169 1851 2039 2409 2079 2173 2090 1946 2139 2170 2024 2027 2159 1935 1959 1961 1962 1931 1939 2398 1939 1958 1950 2080 2090 1871 2068 1928 1823 1849 1962 2034 2063 1984 1972 1970 2043 1856 2072 2189 1749 1755 1962 2192 2200 2048 1867 1965 1865 1738 1875 1968 1839 1765 1852 1860 1873 1966 1856 1962 1729 1869 1862 1871 1760 1756 1764 1865 1973 1965 1743 1659 1642 1650 1758 1655 1647 1520 1654 1647 1836 1653 1771 1656 1730 1548 1759 1756 1612 1660 1757 1763 1752 1539 1756 1649 1647 1555 1653 1523 1740 1543 1652 1552 1552 1548 1551 1549 1722 1541 1542 1540 1538 1655 1429 1630 1540 1635 1530 1539 1525 1661 1656 1659 1656 1646 1515 1547 1530 1533 1530 1532 1528

Tree=0
num_leaves=16
num_cat=0
split_feature=8 12 17 1 7 17 7 18 17 3 17 14 17 5 17
split_gain=2345.35 764.855 688.836 720.522 96.1936 17.4398 16.1494 5.79445 5.86686 4.47644 3.63563 4.09278 2.07435 0.83022 0.283618
threshold=1.0000000180025095e-35 98.645000000000024 201.09500000000003 1.0000000180025095e-35 0.28443205847448144 88.52500000000002 0.2803414004901878 4.5000000000000009 500.00553625698092 652.00000000000011 297.72500000000008 12.222203325514942 259.40000000000003 3.5000000000000004 314.99000000000007
decision_type=2 2 2 2 2 2 2 2 2 2 2 2 2 2 2
left_child=5 2 4 6 13 -1 7 8 9 10 12 -12 -4 -2 -5
right_child=1 -3 3 14 -6 -7 -8 -9 -10 -11 11 -13 -14 -15 -16
leaf_value=0.038316831683168316 -0.05502227171492205 0.057633410672853831 0.0092071611253196923 -0.055063291139240501 -0.010049261083743842 0.0588034188034188 0.027589285714285712 0.0021052631578947368 0.021449275362318838 0.018440366972477064 0.0013705583756345177 0.011463414634146341 0.017524752475247523 -0.047419354838709675 -0.047610208816705336
leaf_weight=50 448.5 107.25 97.25 118 50.25 438.25 55.5 70.75 51.25 54 98 61 50 77 107.25
leaf_count=200 1794 429 389 472 201 1753 222 283 205 216 392 244 200 308 429
internal_value=-3.10118e-05 -0.0192361 -0.0254247 -0.00669941 -0.0501866 0.0567775 0.0121505 0.0103159 0.0116869 0.0102287 0.00870416 0.0053605 0.0121827 -0.0539829 -0.0516944
internal_weight=1934.25 1446 1338.75 763 575.75 488.25 537.75 482.25 411.5 360.25 306.25 159 147.25 525.5 225.25
internal_count=7737 5784 5355 3052 2303 1953 2151 1929 1646 1441 1225 636 589 2102 901
is_linear=0
shrinkage=0.03


Tree=1
num_leaves=17
num_cat=0
split_feature=8 12 17 1 7 17 7 17 7 7 12 7 13 16 0 17
split_gain=2208.54 720.377 646.766 683.117 89.5812 15.4476 14.9795 5.54213 6.73629 7.8043 3.24399 3.09697 2.04554 0.990893 0.925503 0.232646
threshold=1.0000000180025095e-35 100.72000000000001 201.09500000000003 1.0000000180025095e-35 0.28443205847448144 90.060000000000016 0.2803414004901878 500.00553625698092 0.050298380082856274 0.17988077464307103 12.565000000000003 0.090042977238253427 235.60905802226515 11.301884572395844 4.5000000000000009 350.92500000000007
decision_type=2 2 2 2 2 2 2 2 2 2 2 2 2 2 2 2
left_child=5 2 4 6 14 -1 7 8 -4 11 -11 -10 -13 -12 -2 -5
right_child=1 -3 3 15 -6 -7 -8 -9 9 10 13 12 -14 -15 -16 -17
leaf_value=0.037995566602975088 -0.053252546406582425 0.057602765498760748 0.00017813079895302852 -0.0529177503803362 -0.0097510000459161035 0.057085626781073255 0.026774096804956855 0.019004489955093275 0.0088634207461649843 0 0.005036041689294112 0.021541141329070413 0.012511153897328488 0.011702891140662993 -0.046020408095479921 -0.045489701406393274
leaf_weight=51.979925751686096 441.92751640081406 102.91451668739319 70.748079016804695 138.14906197786331 50.248730063438416 435.87309338152409 55.489440679550171 58.493888944387436 65.247962176799774 59.248087793588638 50.247924983501434 68.247533023357391 55.748062774538994 55.998491123318672 85.188262164592743 87.450366914272308
leaf_count=208 1769 412 283 553 201 1745 222 234 261 237 201 273 223 224 341 350
internal_value=-2.80899e-05 -0.0186665 -0.024544 -0.00642302 -0.0485038 0.0551233 0.0118906 0.0101274 0.00885088 0.0105356 0.00560429 0.014743 0.0176683 0.00872876 -0.0521569 -0.0502117
internal_weight=1933.2 1445.35 1342.43 765.069 577.365 487.853 539.469 483.98 425.486 354.738 165.495 189.244 123.996 106.246 527.116 225.599
internal_count=7737 5784 5372 3061 2311 1953 2158 1936 1702 1419 662 757 496 425 2110 903
is_linear=0
shrinkage=0.03


Tree=2
num_leaves=16
num_cat=0
split_feature=8 12 17 1 7 17 7 18 13 17 7 13 11 5 17
split_gain=2082.63 679.989 612.801 640.096 85.676 14.6209 14.2993 5.43198 5.85722 6.07547 5.21764 5.86272 3.40547 0.866976 0.212999
threshold=1.0000000180025095e-35 98.645000000000024 201.09500000000003 1.0000000180025095e-35 0.28443205847448144 90.060000000000016 0.2803414004901878 4.5000000000000009 225.31064461575784 432.99000000000007 0.084805839825279422 328.87401369373077 96.500000000000014 3.5000000000000004 314.99000000000007
decision_type=2 2 2 2 2 2 2 2 2 2 2 2 2 2 2
left_child=5 2 4 6 13 -1 7 8 9 12 -10 -12 -4 -2 -5
right_child=1 -3 3 14 -6 -7 -8 -9 10 -11 11 -13 -14 -15 -16
leaf_value=0.036907433481409763 -0.051963648975969064 0.054467782753426321 0.0067880902038369032 -0.051991277486455816 -0.0094620420648041798 0.055514896626489403 0.0259923681584877 0.0017706155815704655 -0.00023036648963856976 0.02405127973490169 0.0052029610394944224 0.017157903258353313 0.016640175405405744 -0.044570155849826786 -0.044890581293046981
leaf_weight=51.922598600387573 447.21474376320839 106.90662065148354 77.241325557231903 117.65670228004456 50.24507600069046 434.78852801024914 55.459013164043427 70.746705055236816 54.994427099823952 51.236100673675537 96.234763458371162 65.990575537085533 65.741935387253761 76.810218721628189 107.01076665520668
leaf_count=208 1794 429 309 472 201 1745 222 283 220 205 385 264 263 308 429
internal_value=-2.52745e-05 -0.0181293 -0.0239654 -0.006303 -0.0473594 0.0536005 0.0114492 0.00972024 0.011047 0.0149154 0.00749294 0.010196 0.0114647 -0.050952 -0.048783
internal_weight=1930.2 1443.49 1336.58 762.312 574.27 486.711 537.645 482.186 411.439 194.219 217.22 162.225 142.983 524.025 224.667
internal_count=7737 5784 5355 3052 2303 1953 2151 1929 1646 777 869 649 572 2102 901
is_linear=0
shrinkage=0.03


Tree=3
num_leaves=18
num_cat=0
split_feature=8 1 7 16 16 5 16 14 3 16 16 16 7 14 14 13 14
split_gain=1957.41 437.091 174.324 160.883 118.799 15.4195 9.60668 8.62193 7.44497 6.3579 6.07895 9.46945 3.71967 2.81018 4.37364 2.41028 0.899673
threshold=1.0000000180025095e-35 1.0000000180025095e-35 0.30066348200882159 3.5040159247775704 3.705734045594292 4.5000000000000009 7.2282339532160771 3.0022949207356509 758.50000000000011 2.203226204038534 17.902275734046274 21.316583904258835 0.26958033167284207 16.006558771419538 9.4387989279298008 321.95081543845907 12.561468623321749
decision_type=2 2 2 2 2 2 2 2 2 2 2 2 2 2 2 2 2
left_child=-1 2 3 9 -3 6 15 -8 10 -2 13 -12 -6 14 -9 -5 -16
right_child=1 4 -4 5 12 -7 7 8 -10 -11 11 -13 -14 -15 16 -17 -18
leaf_value=0.052063003606884858 0.032950740989733496 0.00032583842408136085 0.045145439393545476 -0.010901944494558918 -0.049278322974450672 0.0015534930342547923 -0.027952305839639889 -0.014974684273618614 -0.0065909693574032714 0.017020081032064809 -0.0054729495667895514 -0.019765110892881788 -0.037965410750685935 -0.012270599509783464 -0.026626840291463966 -0.002521226505479215 -0.020057234565756414
leaf_weight=483.89891691505909 51.944901928305626 51.426714077591896 54.885478839278221 99.509732410311699 342.48060911893845 51.626967445015907 59.827553480863571 90.525671094655991 78.545686542987823 53.995315343141556 94.779778659343719 80.773508131504059 53.010989919304848 52.610524848103523 96.725141137838364 52.834488227963448 73.300378635525703
leaf_count=1949 209 207 220 399 1378 207 240 363 315 217 380 324 213 211 388 212 294
internal_value=-9.28662e-05 -0.0176564 -0.00653144 -0.00959692 -0.0422785 -0.0140492 -0.0151022 -0.0167688 -0.0155394 0.0250903 -0.0169387 -0.0121715 -0.0478497 -0.0195395 -0.0209235 -0.00811132 -0.0239497
internal_weight=1922.7 1438.8 991.885 937 446.918 831.059 779.432 627.088 567.261 105.94 488.715 175.553 395.492 313.162 260.551 152.344 170.026
internal_count=7726 5777 3979 3759 1798 3333 3126 2515 2275 426 1960 704 1591 1256 1045 611 682
is_linear=0
shrinkage=0.03


Tree=4
num_leaves=18
num_cat=0
split_feature=8 12 17 7 7 17 17 15 3 13 17 11 17 14 14 11 5
split_gain=1849.77 636.426 581.096 74.1136 19.9454 15.3303 13.2743 5.9164 9.63031 8.5607 6.55698 6.45121 6.78421 4.04691 3.04546 2.97304 2.76395
threshold=1.0000000180025095e-35 98.645000000000024 199.78000000000003 0.28443205847448144 0.2803414004901878 90.060000000000016 568.95500000000004 1.0000000180025095e-35 872.00000000000011 360.52413215640922 323.85127570852234 32.500000000000007 370.73500000000007 10.802741876687227 13.42580060422827 100.50000000000001 3.5000000000000004
decision_type=2 2 2 2 2 2 2 2 2 2 2 2 2 2 2 2 2
left_child=5 2 3 16 6 -1 7 8 9 11 -9 -4 13 -13 -15 -14 -2
right_child=1 -3 4 -5 -6 -7 -8 10 -10 -11 -12 12 15 14 -16 -17 -18
leaf_value=0.033775398265820135 -0.050723056171442855 0.05265629781511133 -0.020139828260432726 -0.011254926111780408 0.0091390247032496902 0.05271034200970879 0.0068620752609612652 -0.020696605217149604 0.0030095103097169695 0.00083074114305754895 -0.0062769681266023839 -0.016782946368554076 0.0023408508566973791 -0.0028125613787590492 -0.012582229028867071 -0.0075839805316027615 -0.041873416826448677
leaf_weight=51.394612044095993 433.78038631379604 108.06388242542744 55.564417988061905 51.724537625908852 71.462813094258308 430.10798913240433 52.868357792496681 70.226399973034859 70.782666638493538 68.288371428847313 54.604883819818497 91.185564309358597 54.375210717320442 60.333754763007164 65.034573197364807 50.628426015377045 77.714572951197624
leaf_count=207 1750 436 223 207 287 1742 212 282 284 274 219 366 218 242 261 203 313
internal_value=-9.17723e-05 -0.0171565 -0.022864 -0.045982 -0.00581308 0.0507575 -0.00738005 -0.00858248 -0.00709548 -0.00873653 -0.0145589 -0.0105075 -0.00876777 -0.0118147 -0.00802958 -0.00231558 -0.04945
internal_weight=1918.14 1436.64 1328.57 563.219 765.355 481.503 693.893 641.024 516.193 445.41 124.831 377.122 321.558 216.554 125.368 105.004 511.495
internal_count=7726 5777 5341 2270 3071 1949 2784 2572 2071 1787 501 1513 1290 869 503 421 2063
is_linear=0
shrinkage=0.03


Tree=5
num_leaves=16
num_cat=0
split_feature=8 12 17 1 7 17 7 17 3 13 16 13 7 5 17
split_gain=1750.14 602.21 548.114 577.425 69.5262 14.7261 11.0762 7.04934 5.26024 5.31887 6.30684 5.29492 3.33518 2.62339 0.2904
threshold=1.0000000180025095e-35 100.72000000000001 199.78000000000003 1.0000000180025095e-35 0.28443205847448144 90.060000000000016 0.2803414004901878 500.00553625698092 872.00000000000011 360.52413215640922 7.2282339532160771 235.60905802226515 0.17988077464307103 3.5000000000000004 314.99000000000007
decision_type=2 2 2 2 2 2 2 2 2 2 2 2 2 2 2
left_child=5 2 4 6 13 -1 7 8 9 10 -4 12 -12 -2 -5
right_child=1 -3 3 14 -6 -7 -8 -9 -10 -11 11 -13 -14 -15 -16
leaf_value=0.032873553475294574 -0.049178665567935403 0.053175494059974883 0.012767438611416439 -0.049091454342717264 -0.010922536518163412 0.051471480101043465 0.024098731352391149 0.019407024879240137 0.0167193196982049 0.015197359391246657 0.009843780544753232 -0.0028790861570930412 0.00023494457280263131 -0.040549447372957806 -0.042174334164118601
leaf_weight=51.236504316329956 433.23724521696568 102.49705173075199 74.728474274277687 118.37945611774921 51.714991062879562 427.30010548233986 54.587136790156364 60.211714744567871 58.475807785987854 58.485464736819267 88.987955525517464 91.487282246351242 56.241186767816544 77.912583813071251 106.31139536201954
leaf_count=207 1757 416 299 479 207 1742 219 241 234 234 356 366 225 315 429
internal_value=-8.93771e-05 -0.0166843 -0.0220942 -0.0055799 -0.0445724 0.0495479 0.011133 0.00963072 0.00820069 0.00679288 0.00514471 0.00265324 0.00623918 -0.0479336 -0.0459862
internal_weight=1911.79 1433.26 1330.76 767.896 562.865 478.537 543.205 488.618 428.406 369.93 311.445 236.716 145.229 511.15 224.691
internal_count=7726 5777 5361 3082 2279 1949 2174 1955 1714 1480 1246 947 581 2072 908
is_linear=0
shrinkage=0.03


Tree=6
num_leaves=17
num_cat=0
split_feature=8 12 17 1 7 17 7 13 17 13 13 17 0 7 11 17
split_gain=1628.75 560.919 535.722 574.74 72.4987 13.6555 8.83023 5.49647 6.46482 5.26565 4.51116 2.81839 1.55823 1.05382 0.918585 0.271894
threshold=1.0000000180025095e-35 98.645000000000024 199.78000000000003 1.0000000180025095e-35 0.28443205847448144 91.985000000000014 0.2803414004901878 225.31064461575784 432.99000000000007 320.98289576617384 123.12075593918654 297.72500000000008 4.5000000000000009 0.1499029195425545 97.500000000000014 314.99000000000007
decision_type=2 2 2 2 2 2 2 2 2 2 2 2 2 2 2 2
left_child=5 2 4 6 12 -1 7 8 10 13 14 -11 -2 -9 -4 -5
right_child=1 -3 3 15 -6 -7 -8 9 -10 11 -12 -13 -14 -15 -16 -17
leaf_value=0.032701936786605899 -0.048079354784133353 0.050195805306426401 0.0037885526954347013 -0.048184654086104749 -0.0093225808792505045 0.050440715697497016 0.022824640731606512 -0.00090121650693778086 0.022276444162088498 0.015414647977828435 0.017538550671482182 0.0065811739931114031 -0.040629642234466683 0.0047117125070590465 0.0098188353329616597 -0.04141498614816929
leaf_weight=52.996138751506805 423.88112892210484 106.74026370048523 61.485437259078026 117.95570977032185 52.200930759310722 416.2287662923336 57.996272936463356 52.234927088022232 60.441888809204102 68.477578148245811 56.238772943615913 80.976713180541992 83.918937668204308 60.235822141170502 53.481806665658951 109.04854528605938
leaf_count=215 1729 436 246 480 209 1710 233 209 242 274 225 324 342 241 214 442
internal_value=-1.90689e-05 -0.0157946 -0.0210848 -0.00495956 -0.0434525 0.0485061 0.011558 0.0101821 0.013623 0.00706153 0.0104247 0.0107665 -0.0469189 0.00197966 0.00675407 -0.0450967
internal_weight=1914.54 1445.31 1338.57 778.573 560.001 469.225 551.569 493.573 231.648 261.925 171.206 149.454 507.8 112.471 114.967 227.004
internal_count=7771 5846 5410 3130 2280 1925 2208 1975 927 1048 685 598 2071 450 460 922
is_linear=0
shrinkage=0.03


Tree=7
num_leaves=17
num_cat=0
split_feature=8 12 17 1 7 17 7 13 17 13 5 13 7 16 0 17
split_gain=1544.16 531.034 509.08 544.07 69.3424 13.2409 8.33096 5.1764 6.07925 5.03038 5.66826 4.23528 2.6291 1.77704 1.48365 0.269166
threshold=1.0000000180025095e-35 98.645000000000024 199.78000000000003 1.0000000180025095e-35 0.28443205847448144 91.985000000000014 0.2803414004901878 225.31064461575784 432.99000000000007 360.52413215640922 1.5000000000000002 123.12075593918654 0.16664782819708618 11.420249577016127 4.5000000000000009 314.99000000000007
decision_type=2 2 2 2 2 2 2 2 2 2 2 2 2 2 2 2
left_child=5 2 4 6 14 -1 7 8 11 10 -9 13 -12 -4 -2 -5
right_child=1 -3 3 15 -6 -7 -8 9 -10 -11 12 -13 -14 -15 -16 -17
leaf_value=0.031861825559612637 -0.046981785172217898 0.049080399227314074 0.0020299495097070327 -0.04706951999544625 -0.0090478811625519778 0.049368188718696693 0.022181382773137703 0.010474870642122092 0.021629331518817962 0.01386309040836752 -0.004093710160856137 0.017020554852019414 0.0049733419451660791 0.0099809803473523036 -0.039653657371807011 -0.040388103420758874
leaf_weight=52.778171852231026 420.82755330204964 105.91478151082993 51.727939337491989 117.15158319473267 52.18759186565876 412.5788189470768 57.90370886027813 77.477289825677872 60.39829483628273 69.212988525629044 63.230623185634613 56.227181866765022 51.984528571367264 63.23243536055088 83.424619302153587 108.48762284219265
leaf_count=215 1729 436 207 480 209 1710 233 310 242 277 253 225 208 253 342 442
internal_value=-1.67384e-05 -0.0153848 -0.0205328 -0.00481768 -0.0424271 0.0474512 0.0112226 0.00988523 0.0132272 0.0068534 0.00422859 0.0101211 0 0.00655751 -0.0458396 -0.0440198
internal_weight=1904.75 1439.39 1333.47 777.034 556.44 465.357 551.395 493.491 231.586 261.905 192.692 171.188 115.215 114.96 504.252 225.639
internal_count=7771 5846 5410 3130 2280 1925 2208 1975 927 1048 771 685 461 460 2071 922
is_linear=0
shrinkage=0.03


Tree=8
num_leaves=18
num_cat=0
split_feature=10 12 17 7 7 7 18 17 17 13 13 16 18 18 5 16 7
split_gain=1045.53 502.612 527.907 116.36 64.7186 13.7423 13.8258 13.1584 9.19798 8.32759 10.3409 5.66833 3.57161 3.32128 1.63885 1.50928 1.45474
threshold=1.0000000180025095e-35 98.645000000000024 199.78000000000003 0.2803414004901878 0.29046573471732268 0.24972686803512895 4.5000000000000009 94.460000000000022 500.00553625698092 320.89045386535349 225.31064461575784 10.805099544518276 1.5000000000000002 2.5000000000000004 3.5000000000000004 12.904349594599411 0.1244909475176281
decision_type=2 2 2 2 2 2 2 2 2 2 2 2 2 2 2 2 2
left_child=1 2 3 14 5 6 8 -2 9 10 11 -4 -13 -11 -1 -7 -12
right_child=7 -3 4 -5 -6 15 -8 -9 -10 13 16 12 -14 -15 -16 -17 -18
leaf_value=-0.043860834498983529 0.02995656195764439 0.048241749458894076 -0.0055402421411479188 0.0003526759729509256 0.029935360514473756 -0.0081174487932512539 -0.011753946213031399 0.048008497443837859 0.010725695153070916 0.00080755898926643309 -0.015111743288491979 -0.00177835677517668 0.0078747686431086521 0.010044946374447174 -0.036511317067104428 -0.015664268375861143 -0.0072130407182834054
leaf_weight=431.19069188833237 50.272396624088287 118.6362956315279 94.502586513757706 62.479237258434296 57.24289259314537 61.837220132350922 95.149907246232033 314.17845211923122 69.894851103425026 82.832269042730331 50.680879935622215 54.52475942671299 83.778410568833351 65.783042594790459 80.147178366780281 62.933056727051735 57.756340011954308
leaf_count=1787 206 493 383 252 233 250 384 1315 283 335 205 221 339 266 330 255 234
internal_value=-1.4499e-05 -0.0109066 -0.0159067 -0.0380567 -0.000688281 -0.00297361 -0.00120579 0.045604 0.000569356 -0.000858659 -0.00346505 4.06419e-05 0.00396835 0.00501696 -0.042775 -0.0120911 -0.0110948
internal_weight=1893.82 1529.37 1410.73 573.817 836.916 779.673 654.903 364.451 559.753 489.858 341.243 232.806 138.303 148.615 511.338 124.77 108.437
internal_count=7771 6250 5757 2369 3388 3155 2650 1521 2266 1983 1382 943 560 601 2117 505 439
is_linear=0
shrinkage=0.03


Tree=9
num_leaves=18
num_cat=0
split_feature=8 12 1 7 7 7 12 14 7 11 14 14 14 14 18 5 7
split_gain=1455.1 478.798 356.414 103.48 10.8273 13.7945 7.93194 4.179 5.02744 3.13825 2.83947 1.86532 2.1915 1.06645 0.766994 0.528624 0.0882488
threshold=1.0000000180025095e-35 98.645000000000024 1.0000000180025095e-35 0.29046573471732268 0.19891943371195606 0.16021871646777983 9.3850000000000033 14.384848169506737 0.060096897637860365 97.500000000000014 11.43156346531207 11.372447571997824 15.617318129652656 10.414222018010987 2.5000000000000004 3.5000000000000004 0.070045152020647775
decision_type=2 2 2 2 2 2 2 2 2 2 2 2 2 2 2 2 2
left_child=16 2 3 4 5 6 10 8 -8 -10 -2 14 -13 -7 -6 -4 -1
right_child=1 -3 15 -5 11 13 7 -9 9 -11 -12 12 -14 -15 -16 -17 -18
leaf_value=0.040597111383644739 -0.0099200944324345681 0.047524097284964005 -0.044479615516191694 0.026868013210591637 -0.023261527772580844 -0.0034978768731371668 -0.018132857864972346 -0.021156577820954193 -0.0048828193251678684 -0.013974987810463354 -0.00095564743064195266 -0.010371366156013705 -0.01947682070333346 0.0023772197362309567 -0.016809430149790472 -0.036958770509003695 0.046913972947865729
leaf_weight=74.57365545630455 75.056164339184761 101.06229877471924 347.71915754675865 64.288100704550743 70.72731177508831 52.092776298522949 99.430483028292656 79.337116912007332 84.791783794760704 67.762748301029205 62.083138599991798 73.865994736552238 50.110519111156464 57.124565899372101 71.938126266002655 55.429132401943207 389.97402119636536
leaf_count=314 305 424 1442 259 288 211 405 323 345 276 252 300 204 232 292 229 1641
internal_value=-4.59239e-05 -0.0152002 -0.0200604 -0.0096123 -0.012422 -0.0100364 -0.0122737 -0.0148168 -0.0127234 -0.00905191 -0.00598907 -0.0175057 -0.0142357 -0.000291447 -0.0201829 -0.0435298 0.0459769
internal_weight=1877.37 1412.82 1311.76 908.609 844.321 577.679 468.461 331.322 251.985 152.555 137.139 266.642 123.977 109.217 142.665 403.148 464.548
internal_count=7742 5787 5363 3692 3433 2349 1906 1349 1026 621 557 1084 504 443 580 1671 1955
is_linear=0
shrinkage=0.03


Tree=10
num_leaves=21
num_cat=0
split_feature=10 1 12 7 12 7 7 15 14 18 18 16 11 16 13 7 16 12 7 7
split_gain=984.753 452.055 241.03 183.793 96.8861 14.3336 13.5395 12.1123 14.7182 8.11329 10.5875 5.90138 8.34578 9.27351 4.34947 2.17839 2.59927 1.71978 0.440052 0.0545128
threshold=1.0000000180025095e-35 1.0000000180025095e-35 98.645000000000024 0.30066348200882159 60.226153148265666 0.27992332768226447 0.040554103215571881 1.0000000180025095e-35 7.0124127852541474 1.0000000180025095e-35 4.5000000000000009 20.843614288269642 140.50000000000003 15.65 235.60905802226515 0.12170996555377911 7.7078237993092094 16.905000000000005 0.26958033167284207 0.070045152020647775
decision_type=2 2 2 2 2 2 2 2 2 2 2 2 2 2 2 2 2 2 2 2
left_child=1 2 3 5 18 6 14 8 -8 -10 11 12 13 15 -1 -11 -17 -9 -3 -2
right_child=19 4 -4 -5 -6 -7 7 17 9 10 -12 -13 -14 -15 -16 16 -18 -19 -20 -21
leaf_value=-0.010668998599950122 0.038648202537528688 -0.043051310840260738 0.047164975697256264 0.044385674412429681 0.0017072809097497281 -0.021794423339627611 0.010963481118081889 -0.009345442116562349 -0.013029340465684937 -0.0063093988670409832 -0.014068937567552257 -0.010634631510487727 -0.0088930460211566718 0.011268089832270759 -0.022582789741738076 -0.0039320161446946165 0.0046956771238430371 -0.017222918047604136 -0.0355272545596063 0.04521711729861394
leaf_weight=72.610230013728142 65.815975800156593 325.0640781968832 87.502110362052917 63.746053993701935 50.850154221057892 64.338861361145973 55.905634477734566 62.024188086390495 95.84129473567009 50.234068155288696 69.461578294634819 52.013276174664497 70.473733350634575 78.812700226902962 55.921689137816429 52.686151176691055 73.897836208343506 69.37281322479248 51.597160220146179 298.94427219033241
leaf_count=296 280 1362 372 261 213 260 228 253 392 205 283 212 288 321 229 215 302 283 213 1274
internal_value=-4.60073e-05 -0.0107921 -0.000395003 -0.00464689 -0.0368662 -0.00806951 -0.0070123 -0.00539464 -0.00354596 -0.00507493 -0.00332552 -0.00129632 0.000161198 0.00272837 -0.0160361 -0.00101446 0.000985328 -0.0136677 -0.0421089 0.0441274
internal_weight=1867.11 1502.35 1074.84 987.34 427.511 923.594 859.255 730.723 599.326 543.421 447.579 378.118 326.104 255.631 128.532 176.818 126.584 131.397 376.661 364.76
internal_count=7742 6188 4400 4028 1788 3767 3507 2982 2446 2218 1826 1543 1331 1043 525 722 517 536 1575 1554
is_linear=0
shrinkage=0.03


Tree=11
num_leaves=16
num_cat=0
split_feature=8 12 17 1 7 17 17 7 17 17 16 17 17 5 17
split_gain=1325.1 435.897 441.79 454.616 56.3293 14.1639 8.32583 5.79428 3.35642 4.92711 6.79442 4.07199 1.36775 0.72901 0.515638
threshold=1.0000000180025095e-35 100.72000000000001 199.78000000000003 1.0000000180025095e-35 0.28443205847448144 90.060000000000016 500.00553625698092 0.050298380082856274 297.72500000000008 370.73500000000007 12.207416944815758 259.40000000000003 228.22500000000002 3.5000000000000004 370.73500000000007
decision_type=2 2 2 2 2 2 2 2 2 2 2 2 2 2 2
left_child=5 2 4 6 13 -1 7 -4 11 -10 -11 12 -9 -2 -5
right_child=1 -3 3 14 -6 -7 -8 8 9 10 -12 -13 -14 -15 -16
leaf_value=0.028214064313262437 -0.043711078483431871 0.047029684597594476 0.00093327931503181158 -0.043168884549211604 -0.0092560233896646638 0.046360090277823653 0.020502712505325905 0.013241838285597624 0.0021046266588339978 0.0026924660000310066 0.017478445577293403 0.019368947469556717 0.006073673473351947 -0.037033078434116851 -0.035979990285768544
leaf_weight=51.070057600736618 418.67231570184231 95.935166090726852 73.462656661868095 144.05062364041805 51.323141321539879 404.16084238886833 66.223807901144028 58.407583773136139 92.226846382021904 50.402588367462158 71.615936845541 69.402583539485931 62.620285853743553 74.931488215923309 73.172813087701797
leaf_count=213 1767 411 294 604 206 1742 266 234 370 202 287 278 251 313 304
internal_value=-4.51683e-05 -0.0144902 -0.0190353 -0.00424985 -0.039649 0.0443905 0.0103734 0.00891919 0.0103289 0.00755631 0.0115291 0.0133418 0.00969668 -0.0427662 -0.0409044
internal_weight=1857.68 1402.45 1306.51 761.586 544.927 455.231 544.362 478.138 404.676 214.245 122.019 190.43 121.028 493.604 217.223
internal_count=7742 5787 5376 3090 2286 1955 2182 1916 1622 859 489 763 485 2080 908
is_linear=0
shrinkage=0.03


Tree=12
num_leaves=16
num_cat=0
split_feature=8 12 17 1 7 17 3 7 13 13 17 12 13 17 12
split_gain=1224.56 409.526 433.211 450.289 66.7316 15.521 8.12321 4.26216 3.40819 8.70013 8.11764 7.1301 5.57784 0.354221 0.175412
threshold=1.0000000180025095e-35 100.72000000000001 199.78000000000003 1.0000000180025095e-35 0.28443205847448144 91.985000000000014 1366.0000000000002 0.26263298478596886 360.52413215640922 235.60905802226515 432.99000000000007 26.205000000000002 123.12075593918654 332.27500000000003 49.990000000000002
decision_type=2 2 2 2 2 2 2 2 2 2 2 2 2 2 2
left_child=5 2 4 6 14 -1 7 8 9 10 12 -11 -4 -5 -2
right_child=1 -3 3 13 -6 -7 -8 -9 -10 11 -12 -13 -14 -15 -16
leaf_value=0.026926436880992506 -0.042925788447484001 0.045927837413398662 0.0022051759054210864 -0.042918118392313805 -0.0064691244153375436 0.045384026300246891 0.02193609276492741 0.016988960834568721 0.015174544276837502 -0.0048971926836693103 0.020726450810337627 0.0094520179500895557 0.013615056488422879 -0.036256061664496901 -0.036019660428906357
leaf_weight=53.571836546063423 433.37610518932343 95.462380424141884 92.213874146342278 123.36983858048916 53.307293266057968 393.40509659051895 58.099842354655266 67.772887468338013 63.179233282804489 74.956399545073509 57.093636572360992 52.203917235136032 71.193012744188309 90.684187591075897 54.11507810652256
leaf_count=225 1846 414 369 523 214 1718 233 274 253 300 229 209 285 380 229
internal_value=7.5132e-05 -0.0138341 -0.0182789 -0.00350435 -0.0387398 0.0432379 0.0111493 0.00978702 0.0085433 0.00727509 0.010879 0.000890127 0.00729411 -0.0402567 -0.0422276
internal_weight=1834 1387.03 1291.57 750.767 540.798 446.977 536.713 478.613 410.84 347.661 220.501 127.16 163.407 214.054 487.491
internal_count=7701 5758 5344 3055 2289 1943 2152 1919 1645 1392 883 509 654 903 2075
is_linear=0
shrinkage=0.03


Tree=13
num_leaves=19
num_cat=0
split_feature=8 17 1 16 7 16 16 17 7 3 13 13 17 5 5 13 16 17
split_gain=1165.66 370.51 406.152 151.577 63.9749 19.0164 17.4997 15.2512 9.11711 5.44111 5.38449 7.20378 6.55153 6.14206 5.32596 3.1522 1.54903 0.883434
threshold=1.0000000180025095e-35 199.78000000000003 1.0000000180025095e-35 3.2033634659998094 0.28443205847448144 3.4078445136905535 5.8043603937037167 91.985000000000014 0.2803414004901878 1366.0000000000002 360.52413215640922 235.60905802226515 432.99000000000007 1.5000000000000002 3.5000000000000004 123.12075593918654 5.904892527533014 332.27500000000003
decision_type=2 2 2 2 2 2 2 2 2 2 2 2 2 2 2 2 2 2
left_child=7 3 5 -2 14 -3 -4 -1 9 10 11 12 15 -13 16 -7 -5 -8
right_child=1 2 6 4 -6 8 17 -9 -10 -11 -12 13 -14 -15 -16 -17 -18 -19
leaf_value=0.026284921733169878 0.01340298952316323 0.030698265826240207 -0.018048025156939585 -0.034459255675767034 -0.0051491538759872689 0.0031198562580919049 -0.042172850416456187 0.044635323626269707 0.023194286768426213 0.019490776190676178 0.016514456009671975 0.0094264670849776543 0.019333985006479208 -0.0035769980134728106 -0.031651339631108562 0.011942007456100558 -0.043193751750555474 -0.034214530233178782
leaf_weight=53.25004842877388 59.224145963788033 51.039813250303268 50.754535511136055 53.223858401179314 52.3584935516119 87.923075586557388 100.21521151065826 388.09252782166004 53.996570244431496 50.103557527065277 69.246548905968666 53.475862562656403 57.277637660503387 80.690219029784203 73.948953032493591 70.962103396654129 339.63104878365993 74.247381508350372
leaf_count=225 256 217 216 229 211 352 430 1718 221 201 279 214 230 323 315 284 1466 314
internal_value=7.46932e-05 -0.0135056 -0.000257226 -0.0317868 -0.0369786 0.0131065 -0.034379 0.0424875 0.0113356 0.00991719 0.00871641 0.00711094 0.0105064 0.00151029 -0.0405073 0.00717926 -0.0420938 -0.0389792
internal_weight=1819.66 1378.32 799.933 578.386 519.162 574.715 225.217 441.343 523.676 469.679 419.575 350.329 216.163 134.166 466.804 158.885 392.855 174.463
internal_count=7701 5758 3281 2477 2221 2321 960 1943 2104 1883 1682 1403 866 537 2010 636 1695 744
is_linear=0
shrinkage=0.03


Tree=14
num_leaves=18
num_cat=0
split_feature=8 12 1 7 3 7 16 16 16 7 16 14 12 16 7 14 12
split_gain=1110 381.195 294.797 81.3597 9.64446 5.76509 3.46538 6.28123 6.19686 5.37598 4.64898 2.78211 2.00704 1.92998 1.24237 1.06897 0.163015
threshold=1.0000000180025095e-35 98.645000000000024 1.0000000180025095e-35 0.29046573471732268 872.00000000000011 0.24972686803512895 17.204673586505102 21.316583904258835 8.8023270239163889 0.16819660749860776 4.505363135348742 10.876116116241564 13.845000000000001 19.132233835315734 0.26958033167284207 11.563787926193191 23.280000000000005
decision_type=2 2 2 2 2 2 2 2 2 2 2 2 2 2 2 2 2
left_child=-1 2 3 4 5 6 8 13 10 12 -2 -12 -10 -8 -4 -6 -14
right_child=1 -3 14 -5 15 -7 7 -9 9 -11 11 -13 16 -15 -16 -17 -18
leaf_value=0.041776239239497831 -0.015404126350161548 0.043507077780624348 -0.040452955972091836 0.024023191175069545 0.00065561697582503626 -0.018233440177430751 -0.0061297375814882791 -0.013850570040898595 -0.01306128284372089 -0.0088281592814623243 -0.0090911009600631136 0 -0.024594943446659811 0.0014661816753790981 -0.032132674764135789 -0.0051649753849542348 -0.018251077514749522
leaf_weight=435.51059086620808 51.78251975774765 98.462179780006409 335.83462230861187 65.286091268062592 55.76642781496048 114.35813148319721 60.937219932675362 73.909049659967422 51.708272412419319 81.698513731360435 59.719858452677727 65.590547174215317 50.156086444854736 53.919051468372345 50.701077044010162 50.149391621351242 50.679591730237007
leaf_count=1943 213 433 1464 265 229 471 251 306 213 336 246 270 208 221 215 207 210
internal_value=7.34931e-05 -0.0131765 -0.0175907 -0.00801965 -0.010601 -0.0118572 -0.0106029 -0.00701351 -0.0122032 -0.0154746 -0.0077603 -0.00443372 -0.0188957 -0.00244292 -0.0394433 -0.0019707 -0.0216604
internal_weight=1806.17 1370.66 1272.2 885.661 820.375 714.459 600.101 188.765 411.335 234.242 177.093 125.31 152.544 114.856 386.536 105.916 100.836
internal_count=7701 5758 5325 3646 3381 2945 2474 778 1696 967 729 516 631 472 1679 436 418
is_linear=0
shrinkage=0.03


Tree=15
num_leaves=16
num_cat=0
split_feature=8 12 17 1 7 17 7 17 13 3 5 13 12 0 17
split_gain=1074.43 367.474 396.283 387.005 39.47 12.0796 7.39283 4.88986 4.90447 5.71352 7.22675 2.74133 4.30512 2.0234 0.931522
threshold=1.0000000180025095e-35 100.72000000000001 199.78000000000003 1.0000000180025095e-35 0.27992332768226447 91.985000000000014 0.2803414004901878 500.00553625698092 360.52413215640922 872.00000000000011 2.5000000000000004 216.30508569461054 22.385000000000002 4.5000000000000009 314.99000000000007
decision_type=2 2 2 2 2 2 2 2 2 2 2 2 2 2 2
left_child=5 2 4 6 13 -1 7 8 9 10 11 -4 -13 -2 -5
right_child=1 -3 3 14 -6 -7 -8 -9 -10 -11 -12 12 -14 -15 -16
leaf_value=0.02662037323701737 -0.041468867476152652 0.044273546986234986 0.011457817517762503 -0.040868196593724697 -0.014743887274420133 0.043455336265304602 0.02092880205809497 0.017055808054283285 0.015304527687038244 0.015547336623392187 -0.0020669344532291793 -0.00081722391119767532 0.010602086283494216 -0.033803301626544026 -0.033786347423894587
leaf_weight=51.630837887525558 383.5047769844532 93.423492074012756 98.918355897068977 108.93252742290497 65.052979603409767 375.07292975485325 53.526667147874832 61.218317449092865 67.128043577075005 51.868057355284691 96.410415425896645 62.210003957152367 52.695980712771416 78.136626303195953 102.94045095145702
leaf_count=222 1679 418 396 477 267 1708 219 246 269 208 386 249 211 340 443
internal_value=-6.67029e-05 -0.0129743 -0.0171717 -0.00322347 -0.037138 0.041487 0.0101549 0.00892843 0.00771587 0.00624853 0.00462308 0.00770728 0.00431295 -0.0402418 -0.0375857
internal_weight=1802.67 1375.97 1282.54 755.849 526.694 426.704 543.976 490.449 429.231 362.103 310.235 213.824 114.906 461.641 211.873
internal_count=7738 5808 5390 3104 2286 1930 2184 1965 1719 1450 1242 856 460 2019 920
is_linear=0
shrinkage=0.03


Tree=16
num_leaves=19
num_cat=0
split_feature=8 12 1 0 12 14 18 14 3 11 16 16 16 16 13 11 16 11
split_gain=1024.45 349.718 265.801 8.76771 6.04225 5.31073 5.37771 4.62428 8.53737 4.39162 4.7924 4.09106 4.10869 3.36625 2.97163 2.64095 2.62459 1.53577
threshold=1.0000000180025095e-35 100.72000000000001 1.0000000180025095e-35 4.5000000000000009 9.5700000000000021 13.471909258442315 3.5000000000000004 13.568943452392714 652.00000000000011 128.50000000000003 13.10000522012915 7.0010081003320996 19.132233835315734 15.700354379111253 345.98551658508319 98.500000000000014 12.904349594599411 159.50000000000003
decision_type=2 2 2 2 2 2 2 2 2 2 2 2 2 2 2 2 2 2
left_child=-1 2 3 4 5 6 13 8 11 10 -5 -6 16 -2 15 -9 -13 -4
right_child=1 -3 17 9 7 -7 -8 14 -10 -11 -12 12 -14 -15 -16 -17 -18 -19
leaf_value=0.040843227115805479 -0.009235305462901959 0.043599236882980466 -0.038724492225423075 0.0011876321820326529 -0.0037996515770876982 0.0023730135274826212 -0.01583334470912906 -0.023491014716010374 0.0022103705947819356 0.005539128761620965 -0.011166105527814977 -0.011119169954286075 -0.005526515141963213 0.0013687953816312009 -0.008885113356919605 -0.01263235559222696 -0.019189168174409313 -0.030200031575649853
leaf_weight=420.55101107060909 50.108109399676323 92.050826922059059 332.03843973577023 54.280942276120186 65.145485803484917 62.308734536170959 51.055502861738205 54.056377232074738 50.540855899453163 53.484859943389893 54.209574535489082 95.374384865164757 61.50466226041317 53.01851050555706 52.581530421972275 50.153791427612305 83.878226399421692 50.611700683832169
leaf_count=1930 207 418 1475 223 270 257 211 226 208 221 225 397 254 218 218 208 348 224
internal_value=-6.40454e-05 -0.0126758 -0.016768 -0.00776254 -0.00916695 -0.00482221 -0.00782522 -0.010964 -0.00894951 -0.00133438 -0.00487045 -0.0108429 -0.0126747 -0.00365857 -0.0154051 -0.0184935 -0.0150217 -0.037677
internal_weight=1786.95 1366.4 1274.35 891.702 729.726 216.491 154.182 513.235 356.444 161.975 108.491 305.903 240.757 103.127 156.792 104.21 179.253 382.65
internal_count=7738 5808 5390 3691 3022 893 636 2129 1477 669 448 1269 999 425 652 434 745 1699
is_linear=0
shrinkage=0.03


Tree=17
num_leaves=19
num_cat=0
split_feature=10 17 1 12 7 12 12 17 7 17 15 13 13 18 16 7 5 17
split_gain=691.618 347.658 388.048 279.167 85.7857 30.2475 16.0066 11.4404 9.02253 5.18632 6.46296 7.74125 9.05658 7.83625 4.01787 2.08408 2.04327 0.263715
threshold=1.0000000180025095e-35 197.41500000000002 1.0000000180025095e-35 95.290000000000006 0.28443205847448144 89.822382215807622 34.190000000000005 97.530000000000015 0.2803414004901878 500.00553625698092 1.0000000180025095e-35 359.76371696097846 325.39414720637615 3.5000000000000004 10.605782516699266 0.15008518453710348 3.5000000000000004 314.99000000000007
decision_type=2 2 2 2 2 2 2 2 2 2 2 2 2 2 2 2 2 2
left_child=1 3 5 4 16 8 17 -2 9 10 11 12 13 14 -3 -16 -1 -4
right_child=7 2 6 -5 -6 -7 -8 -9 -10 -11 -12 -13 -14 -15 15 -17 -18 -19
leaf_value=-0.039098681922108837 0.025017172725565182 0.009256170716753595 -0.038601214119424083 0.03900730823200297 0.00064901401261682821 0.036946560196586903 -0.015874041883463225 0.0416834197124328 0.024029905207349475 0.019482686729941516 0.0024042321350101268 0.022096133774739127 -0.0011280375152060919 0.0044795371722904627 0.014568935276045386 0.023980189205008443 -0.031374533306121541 -0.031903283091606741
leaf_weight=392.8665943145752 51.842056721448898 66.627930387854576 88.172783508896828 51.676863759756088 57.40479901432991 51.242993906140327 53.140950694680214 277.23627412319183 60.16523665189743 67.931370198726654 82.686506643891335 59.066521286964417 52.788833573460579 86.940934702754021 63.187855556607246 55.091454520821571 73.014331981539726 82.984070003032684
leaf_count=1755 230 271 397 236 236 235 235 1310 251 277 332 240 213 352 257 226 320 365
internal_value=-6.32641e-05 -0.00901335 0.00293502 -0.0271064 -0.0336951 0.0147592 -0.0309958 0.0391453 0.012792 0.0114773 0.0102595 0.011908 0.00997699 0.0121866 0.0157076 0.0191612 -0.0379552 -0.0355435
internal_weight=1774.07 1444.99 870.027 574.963 523.286 645.73 224.298 329.078 594.487 534.321 466.39 383.704 324.637 271.848 184.907 118.279 465.881 171.157
internal_count=7738 6198 3651 2547 2311 2654 997 1540 2419 2168 1891 1559 1319 1106 754 483 2075 762
is_linear=0
shrinkage=0.03


Tree=18
num_leaves=16
num_cat=0
split_feature=8 12 17 1 7 17 7 17 13 0 5 14 12 17 12
split_gain=952.247 326.091 360.521 323.603 43.486 13.2412 5.863 4.51729 3.82887 5.4754 5.73039 4.74139 3.02584 1.48781 0.395327
threshold=1.0000000180025095e-35 100.72000000000001 201.09500000000003 1.0000000180025095e-35 0.28443205847448144 91.985000000000014 0.2803414004901878 500.00553625698092 361.10778112045858 2.5000000000000004 1.5000000000000002 10.501308345418632 14.785000000000002 358.68500000000006 39.150566652785116
decision_type=2 2 2 2 2 2 2 2 2 2 2 2 2 2 2
left_child=5 2 4 6 14 -1 7 8 9 10 -4 -12 -11 -5 -2
right_child=1 -3 3 13 -6 -7 -8 -9 -10 12 11 -13 -14 -15 -16
leaf_value=0.024371632579678809 -0.039455107493199339 0.042566844930503084 0.008130516654222068 -0.038350370819669272 -0.0094850542629493339 0.041713915365804349 0.018438962304742353 0.016111086990778459 0.013597092191819359 0.0051967166252859416 0.0039642976345977835 -0.0083916693659857756 0.013440919649625748 -0.030327119532967326 -0.033642381257477511
leaf_weight=52.411964908242226 383.74811528623104 90.063481822609901 76.638801887631416 125.30801382660866 53.574154675006866 361.74356676638126 56.145784333348274 56.372873231768608 66.305230051279068 91.885225996375084 51.159458994865417 58.174919471144676 86.395631641149521 74.692101955413818 80.088465914130211
leaf_count=231 1733 420 307 567 216 1723 231 227 266 368 205 233 346 330 357
internal_value=-0.000171566 -0.0123852 -0.0163388 -0.00292285 -0.0355556 0.0395874 0.00907281 0.00794426 0.00682274 0.00553153 0.00182113 -0.0024818 0.00930221 -0.0355119 -0.0385211
internal_weight=1764.71 1350.55 1260.49 743.078 517.411 414.156 543.078 486.932 430.559 364.254 185.973 109.334 178.281 200 463.837
internal_count=7760 5806 5386 3080 2306 1954 2183 1952 1725 1459 745 438 714 897 2090
is_linear=0
shrinkage=0.03


Tree=19
num_leaves=18
num_cat=0
split_feature=8 17 1 16 7 16 17 16 11 7 0 17 13 16 11 11 17
split_gain=908.974 302.791 288.682 119.664 42.9398 15.6572 13.1502 13.1089 6.0172 4.53235 6.05559 4.2864 4.05846 3.31896 2.93758 2.28512 1.8919
threshold=1.0000000180025095e-35 201.09500000000003 1.0000000180025095e-35 3.2033634659998094 0.28443205847448144 6.9164257306613361 91.985000000000014 6.1321423310009209 26.500000000000004 0.050298380082856274 1.5000000000000002 397.34639941161555 321.24114385923951 5.904892527533014 104.50000000000001 97.500000000000014 335.32500000000005
decision_type=2 2 2 2 2 2 2 2 2 2 2 2 2 2 2 2 2
left_child=6 3 5 -2 13 12 -1 -4 -7 -10 15 14 -3 -5 -12 -11 -9
right_child=1 2 7 4 -6 8 -8 16 9 10 11 -13 -14 -15 -16 -17 -18
leaf_value=0.023826785993434935 0.011590416298162024 0.015134399535835537 -0.016095136632807382 -0.028629335601524884 -0.007884328081575737 -0.0016080685240570426 0.04116840864228466 -0.038316953557859183 0.0014169054081999634 0.0089251374219055084 0.0054680302930750586 0.019609262943060229 0.026685419002150199 -0.038165406462869832 0.014484246591934162 0 -0.029114759504129725
leaf_weight=52.019581183791161 57.458468392491341 91.180246382951736 50.345307037234306 60.35320009291172 52.932589337229729 50.243534088134766 355.63976615667343 91.0008884370327 61.639806568622589 50.036852553486824 71.837452441453934 73.312726870179176 51.41713672876358 382.16410350799561 74.799102857708931 53.174600034952164 68.476498767733574
leaf_count=231 264 374 225 274 215 202 1723 420 247 201 289 296 226 1750 302 214 307
internal_value=-0.000166354 -0.012107 -0.000136707 -0.0291127 -0.0338704 0.0107931 0.0390242 -0.0302518 0.00789118 0.0091709 0.0105991 0.0134435 0.0194829 -0.0369325 0.0102027 0.00435729 -0.0345628
internal_weight=1748.03 1340.37 787.464 552.908 495.45 577.641 407.659 209.823 435.044 384.801 323.161 219.949 142.597 442.517 146.637 103.211 159.477
internal_count=7760 5806 3303 2503 2239 2351 1954 952 1751 1549 1302 887 600 2024 591 415 727
is_linear=0
shrinkage=0.03


Tree=20
num_leaves=21
num_cat=0
split_feature=8 1 7 16 16 7 7 16 13 16 13 7 16 18 14 5 7 11 16 14
split_gain=867.752 208.868 117.217 67.979 56.3984 12.8095 7.2238 7.16503 8.71438 5.86911 3.37041 3.22572 2.73932 2.32817 2.31936 1.3777 0.822358 0.511212 0.459176 0.143949
threshold=1.0000000180025095e-35 1.0000000180025095e-35 0.30066348200882159 3.4078445136905535 4.4070621808225292 0.19891943371195606 0.16021871646777983 7.2282339532160771 225.31064461575784 13.802903346642738 318.74772356457203 0.050298380082856274 16.906003925257728 2.5000000000000004 10.717076418926569 2.5000000000000004 0.070045152020647775 153.50000000000003 12.600395188405512 10.802741876687227
decision_type=2 2 2 2 2 2 2 2 2 2 2 2 2 2 2 2 2 2 2 2
left_child=16 2 3 -2 -3 6 7 -5 9 -9 15 -10 -13 -12 -8 18 -1 -6 -7 -11
right_child=1 4 -4 5 17 10 14 8 11 19 13 12 -14 -15 -16 -17 -18 -19 -20 -21
leaf_value=0.032567331796261867 0.018022428119469278 -0.0032568759656585551 0.038783560664449733 -0.00052976318608515156 -0.036296966725524259 -0.016498094938648525 -0.0041484139884824366 -0.012971362641810277 -0.021267731103615854 0.0003004966392957256 -0.0058110363186386271 -0.015382836052965813 -0.0060138643737200912 -0.015252049610175726 0.0048754268228310528 -0.012887837944090234 0.039522601033459212 -0.029285746574624353 -0.023292623275241214 -0.0017560661743989531
leaf_weight=64.384368970990181 88.501965209841728 59.630374640226364 53.255016803741455 85.458690643310547 275.61548176407814 50.283293560147285 50.145432516932487 53.802805006504059 54.890138700604439 50.466409131884575 57.301050692796707 85.180259108543396 53.012316107749939 52.402785539627075 50.922555670142174 52.956485003232956 336.71181039512157 51.135324567556381 54.696497991681099 52.18040469288826
leaf_count=313 403 270 225 359 1290 212 209 227 234 211 241 362 222 220 213 223 1641 238 228 219
internal_value=-0.000161688 -0.011822 -0.00420284 -0.00680577 -0.0303974 -0.00956796 -0.00682935 -0.00850754 -0.0104117 -0.00497979 -0.0149743 -0.0147113 -0.0119316 -0.0105056 0.000252133 -0.0179406 0.0384854 -0.035292 -0.020274 -0.000602976
internal_weight=1732.93 1331.84 945.456 892.201 386.381 803.699 536.059 434.991 349.532 156.45 267.64 193.083 138.193 109.704 101.068 157.936 401.096 326.751 104.98 102.647
internal_count=7760 5806 4008 3783 1798 3380 2256 1834 1475 657 1124 818 584 461 422 663 1954 1528 440 430
is_linear=0
shrinkage=0.03


Tree=21
num_leaves=18
num_cat=0
split_feature=8 12 17 7 17 17 7 3 13 17 13 7 7 7 14 0 17
split_gain=812.943 306.102 328.291 41.4065 13.6491 10.4364 7.74294 5.01131 3.99912 5.90244 3.94037 3.27015 2.57023 3.4238 2.53194 1.7131 0.944225
threshold=1.0000000180025095e-35 98.645000000000024 199.78000000000003 0.28443205847448144 93.665000000000006 581.51924557244763 0.2803414004901878 948.50000000000011 320.98289576617384 432.99000000000007 225.31064461575784 0.15215155008447007 0.19891943371195606 0.12170996555377911 8.7602479196486609 4.5000000000000009 314.99000000000007
decision_type=2 2 2 2 2 2 2 2 2 2 2 2 2 2 2 2 2
left_child=4 2 3 15 -1 6 7 8 9 10 12 -12 13 -4 -10 -2 -16
right_child=1 -3 5 -5 -6 -7 -8 -9 14 -11 11 -13 -14 -15 16 -17 -18
leaf_value=0.022320769850700379 -0.038202720945508473 0.041217227053264263 -0.0078828277215874012 -0.0083467760405021921 0.040086243998447929 0.010400043627005006 0.006503110272575165 0.0023220652556004248 0.0035301668415612685 0.00028870775911194737 -0.019641430980684545 -0.008210687888011714 -0.012233445645098961 0.0012136057692325531 -0.0066992811137129883 -0.030765974170641721 -0.00082468264245249201
leaf_weight=50.992299318313599 370.16561512649059 92.714706808328629 91.395332768559456 52.236197128891945 343.10665689408779 51.444443926215172 61.872921466827393 81.079771354794502 55.208348661661148 71.827056914567947 50.348911896348 54.509532958269119 53.438980594277382 58.130203872919083 62.331713572144508 71.602253347635269 51.477251619100571
leaf_count=232 1727 441 385 211 1721 214 262 339 229 298 214 229 225 243 262 330 213
internal_value=3.29998e-05 -0.0111753 -0.0151292 -0.0340723 0.0378568 -0.00250077 -0.00348886 -0.00449876 -0.00553522 -0.00725406 -0.00906034 -0.0139088 -0.00645371 -0.00425422 -0.00157584 -0.0370674 -0.00418858
internal_weight=1723.88 1329.78 1237.07 494.004 394.099 743.064 691.62 629.747 548.667 379.65 307.823 104.858 202.965 149.526 169.017 441.768 113.809
internal_count=7775 5822 5381 2268 1953 3113 2899 2637 2298 1594 1296 443 853 628 704 2057 475
is_linear=0
shrinkage=0.03


Tree=22
num_leaves=19
num_cat=0
split_feature=8 17 1 16 7 16 17 16 7 17 3 13 14 11 11 5 11 17
split_gain=776.593 270.965 274.986 109.782 41.4173 14.6267 13.579 12.1902 6.20783 3.93347 4.23583 5.10449 4.25909 6.97443 4.59305 3.68498 3.60435 1.18275
threshold=1.0000000180025095e-35 199.78000000000003 1.0000000180025095e-35 3.6075820108872274 0.28443205847448144 7.9066068270435315 93.665000000000006 3.5040159247775704 0.2803414004901878 500.00553625698092 872.00000000000011 360.52413215640922 11.493328914553732 69.500000000000014 59.500000000000007 3.5000000000000004 117.50000000000001 332.27500000000003
decision_type=2 2 2 2 2 2 2 2 2 2 2 2 2 2 2 2 2 2
left_child=6 3 7 -2 15 -4 -1 -3 9 10 11 12 14 -14 -9 -5 -16 -7
right_child=1 2 5 4 -6 17 -8 8 -10 -11 -12 -13 13 -15 16 -17 -18 -19
leaf_value=0.021828778225253257 0.0081625572316110038 0.024956248409190324 -0.016217806901986192 -0.037261781574597093 -0.0064776277802487143 -0.037784703385789105 0.039614471129744672 0.0082562048279734932 0.019443430813868283 0.015822650126644418 0.015112821502140713 0.013746000157966939 -0.00051076712038324902 0.013205055832945289 -0.0084582760952291378 -0.027775275620438938 0.0022764934691065306 -0.029281052731291401
leaf_weight=50.594698712229729 67.023854866623878 51.55252443253994 62.828047007322311 347.0825280547142 50.073600396513939 83.177407070994377 336.87722338736057 50.953498885035515 52.655672252178192 58.410745605826378 55.227467805147171 63.591610476374626 50.447631880640984 87.34109553694725 50.695822864770889 66.09852322936058 58.893515586853027 65.640212684869766
leaf_count=232 312 234 286 1651 204 396 1721 204 221 236 222 258 202 350 203 306 236 301
internal_value=3.27387e-05 -0.0109094 0.000193687 -0.0274931 -0.0326874 -0.0290151 0.0373619 0.010898 0.00947533 0.00832086 0.00721684 0.00595138 0.00421949 0.00809122 0.000788555 -0.0358158 -0.002569 -0.034245
internal_weight=1709.17 1321.69 791.415 530.279 463.255 211.646 387.472 579.77 528.217 475.561 417.151 361.923 298.332 137.789 160.543 413.181 109.589 148.818
internal_count=7775 5822 3349 2473 2161 983 1953 2366 2132 1911 1675 1453 1195 552 643 1957 439 697
is_linear=0
shrinkage=0.03


Tree=23
num_leaves=18
num_cat=0
split_feature=8 12 1 7 7 7 11 11 2 16 14 12 13 5 16 12 10
split_gain=742.182 286.533 208.347 50.4102 6.13343 4.61793 4.45019 4.58757 4.52884 4.35542 4.66404 4.96216 2.78107 2.16036 1.61485 0.545939 0.184638
threshold=1.0000000180025095e-35 98.645000000000024 1.0000000180025095e-35 0.29046573471732268 0.24972686803512895 0.030218889046755262 20.500000000000004 164.50000000000003 1.0000000180025095e-35 16.906003925257728 11.596850056965298 25.465000000000003 235.60905802226515 3.5000000000000004 19.617757390082861 20.825000000000003 1.0000000180025095e-35
decision_type=2 2 2 2 2 2 2 2 2 2 2 2 2 2 2 2 2
left_child=16 2 3 4 5 -2 -7 8 9 10 11 -8 -12 -4 -11 -6 -1
right_child=1 -3 13 -5 15 6 7 -9 -10 14 12 -13 -14 -15 -16 -17 -18
leaf_value=0.041243399894639557 -0.013924985780298058 0.040570283069694742 -0.03530244781686033 0.018677962028045631 -0.012164869366069614 -0.014884402570291087 -0.016599871622948181 -0.013650435810068959 0.0020602905098723073 0.0026821217153116233 0.00030067300343881932 -0.0050098745677584211 -0.0084482445299198638 -0.026336335295998107 -0.0040329024154618035 -0.0178370759013073 0.035649585533769776
leaf_weight=77.93510764837265 90.498986676335335 90.822398900985718 297.93967001140118 64.740150675177574 75.529748409986496 52.952171221375465 82.191341876983643 57.789354458451271 75.168281629681587 53.510469913482666 69.110135421156883 64.303482264280319 56.626356333494186 51.222461253404617 74.88091666996479 55.58945244550705 302.89115457236767
leaf_count=388 388 441 1438 267 318 225 350 247 317 226 293 273 240 243 318 238 1565
internal_value=3.26655e-05 -0.010656 -0.0144904 -0.00662647 -0.00868243 -0.00747669 -0.00644518 -0.00556644 -0.00453977 -0.00581655 -0.00797125 -0.0116489 -0.0035385 -0.0340695 -0.00111832 -0.0147423 0.0368863
internal_weight=1693.7 1312.88 1222.05 872.891 808.151 677.031 586.533 533.58 475.791 400.623 272.231 146.495 125.736 349.162 128.391 131.119 380.826
internal_count=7775 5822 5381 3700 3433 2877 2489 2264 2017 1700 1156 623 533 1681 544 556 1953
is_linear=0
shrinkage=0.03


Tree=24
num_leaves=17
num_cat=0
split_feature=10 17 1 12 7 12 12 17 7 13 3 13 13 17 11 5
split_gain=486.942 281.465 305.174 203.649 54.5748 22.3254 16.2095 13.6276 8.15743 5.80024 5.03634 3.02165 6.25085 5.04537 5.01162 2.72431
threshold=1.0000000180025095e-35 197.41500000000002 1.0000000180025095e-35 87.115000000000023 0.28443205847448144 80.935000000000016 34.190000000000005 102.24327815229695 0.080247721484964854 225.31064461575784 939.00000000000011 325.48489531745287 235.60905802226515 404.49500000000006 96.500000000000014 3.5000000000000004
decision_type=2 2 2 2 2 2 2 2 2 2 2 2 2 2 2 2
left_child=1 3 5 4 15 8 -4 -2 9 -3 11 12 13 14 -10 -1
right_child=7 2 6 -5 -6 -7 -8 -9 10 -11 -12 -13 -14 -15 -16 -17
leaf_value=-0.035462776264125521 0.019971308536725966 0.011287295907243238 -0.032717695945997674 0.031924932745541819 -0.0027710969185732112 0.032845414409886496 -0.01277677616404075 0.038063234496781152 0.0050595675297617423 -0.00043955585603107518 0.022812179205676027 0.018086158585487334 0.0042587095119728489 0.021059978285612652 0.016492374761031121 -0.027000687128878497
leaf_weight=360.09282426536083 51.036727696657181 76.127630576491356 159.38088850677013 51.428732872009277 57.537298157811165 50.481690153479576 52.422158852219582 243.25499084591866 78.700006783008575 70.492347791790962 55.100389868021011 81.860437393188477 91.591844350099564 66.093373745679855 70.165597409009933 66.791301518678665
leaf_count=1747 245 309 765 252 241 249 243 1302 325 286 227 340 377 276 290 313
internal_value=0 -0.00743657 0.00325926 -0.0244664 -0.0305108 0.0135966 -0.0278946 0.0350158 0.0118982 0.00556494 0.0139495 0.012626 0.011092 0.0139173 0.0105858 -0.034207
internal_weight=1682.56 1388.27 852.416 535.85 484.421 640.613 211.803 294.292 590.132 146.62 443.512 388.411 306.551 214.959 148.866 426.884
internal_count=7787 6240 3687 2553 2301 2679 1008 1547 2430 595 1835 1608 1268 891 615 2060
is_linear=0
shrinkage=0.03


Tree=25
num_leaves=19
num_cat=0
split_feature=10 17 1 12 12 0 12 17 18 5 17 15 3 11 11 14 16 18
split_gain=465.705 268.529 289.462 194.086 20.3339 17.6861 15.8119 13.5514 5.43748 3.56272 3.20107 4.04424 4.61204 4.31581 4.66214 1.71715 0.793002 0.740458
threshold=1.0000000180025095e-35 197.41500000000002 1.0000000180025095e-35 87.115000000000023 78.725000000000009 4.5000000000000009 34.190000000000005 102.24327815229695 4.5000000000000009 3.5000000000000004 500.00553625698092 1.0000000180025095e-35 697.00000000000011 104.50000000000001 50.500000000000007 11.530171763719485 6.8041343774639165 2.5000000000000004
decision_type=2 2 2 2 2 2 2 2 2 2 2 2 2 2 2 2 2 2
left_child=1 3 4 5 8 9 -4 -2 10 16 11 12 13 14 -3 -16 -1 -15
right_child=7 2 6 -5 -6 -7 -8 -9 -10 -11 -12 -13 -14 17 15 -17 -18 -19
leaf_value=-0.039358233435129494 0.019537191121711452 0.013710027891329739 -0.03217058606659956 0.031322491512402129 0.031397015860442898 -0.017056350617996752 -0.012426445385649264 0.037656674380343202 0.0038499447743733004 -0.024565888033425611 0.019293384624598835 0.0049049455044731655 0.021689993842059253 0.013111713955767131 0 0.0077337785252986667 -0.032714101019430016 0.019387490732836798
leaf_weight=64.714145511388779 50.623083174228668 83.150607049465179 157.26927338540554 50.863578662276268 51.560956001281738 85.388668388128281 52.299049958586693 238.58102424442768 77.305466145277023 60.867630571126938 65.880016714334488 73.999507546424866 51.38964319229126 79.472902327775955 52.037054091691971 51.575736433267593 267.64620552957058 52.901319086551666
leaf_count=307 245 344 765 252 256 402 243 1302 312 284 276 299 212 330 217 214 1308 219
internal_value=0 -0.007266 0.00317779 -0.0240246 0.0132245 -0.0299643 -0.027356 0.034576 0.0115793 -0.0327039 0.0127157 0.0116866 0.0129922 0.0115129 0.00836286 0.00388239 -0.03411 0.0157961
internal_weight=1667.53 1378.32 848.842 529.48 639.273 478.617 209.568 289.204 587.712 393.228 510.407 444.527 370.527 319.138 186.763 103.613 332.36 132.374
internal_count=7787 6240 3687 2553 2679 2301 1008 1547 2423 1899 2111 1835 1536 1324 775 431 1615 549
is_linear=0
shrinkage=0.03


Tree=26
num_leaves=19
num_cat=0
split_feature=8 12 1 5 0 11 14 3 11 16 16 16 16 12 16 10 12 11
split_gain=653.734 240.729 197.586 15.9258 4.99522 4.62254 4.35691 4.24374 3.1447 3.1047 7.60621 2.67108 4.723 4.97527 1.53069 0.992156 0.616217 0.502346
threshold=1.0000000180025095e-35 100.72000000000001 1.0000000180025095e-35 4.5000000000000009 4.5000000000000009 20.500000000000004 12.561468623321749 747.50000000000011 154.50000000000003 17.902275734046274 21.411389413714286 8.8023270239163889 11.500059027186298 11.025 4.505363135348742 1.0000000180025095e-35 36.935000000000009 98.500000000000014
decision_type=2 2 2 2 2 2 2 2 2 2 2 2 2 2 2 2 2 2
left_child=15 2 3 4 5 -2 -6 9 17 11 -11 14 -13 -14 -7 -1 -16 -4
right_child=1 -3 8 -5 6 7 -8 -9 -10 10 -12 12 13 -15 16 -17 -18 -19
leaf_value=0.040667210523971882 -0.016392493292475142 0.040052498242075886 -0.032005254838956609 0.0091170031538911605 -0.0054750236713699612 -0.01091855730855169 0.0053233347156864119 -0.00066357298179999262 -0.024315917593927535 0.0014714931684546182 -0.012054994336470249 -0.018915279573130883 -0.00089059466169388337 -0.012669570373703448 -0.0064512898897084413 0.034150012500306984 -0.001452809599017275 -0.03756958066443581
leaf_weight=77.264650136232376 55.710765048861504 80.508938610553741 186.22464467585087 59.471721857786179 95.771321564912796 50.397228434681892 50.182447925209999 84.224633380770683 53.38049803674221 85.072041898965836 63.945374757051468 64.018202558159828 51.885468319058418 99.914513394236565 55.387745395302773 284.13677898049355 53.347361370921135 102.27451175451279
leaf_count=395 241 410 934 252 408 215 213 360 264 360 277 278 221 432 240 1547 228 512
internal_value=0 -0.00997959 -0.0133328 -0.0057056 -0.00681756 -0.00792797 -0.00165437 -0.00711515 -0.0326466 -0.00812197 -0.00425348 -0.00961177 -0.0118771 -0.00875813 -0.00641789 0.035639 -0.00415414 -0.0340913
internal_weight=1653.12 1291.72 1211.21 869.329 809.857 663.903 145.954 608.193 341.88 523.968 149.017 374.951 215.818 151.8 159.132 361.401 108.735 288.499
internal_count=7787 5845 5435 3725 3473 2852 621 2611 1710 2251 637 1614 931 653 683 1942 468 1446
is_linear=0
shrinkage=0.03


Tree=27
num_leaves=18
num_cat=0
split_feature=8 17 1 12 7 12 12 17 13 17 13 16 7 0 17 16 0
split_gain=635.221 245.885 214.249 130.487 37.4699 13.6834 11.9395 9.60817 7.1243 6.03338 4.76889 4.44129 3.61191 4.9594 2.24326 1.92274 1.38562
threshold=1.0000000180025095e-35 201.09500000000003 1.0000000180025095e-35 75.065000000000012 0.28443205847448144 32.980000000000011 66.995000000000019 97.530000000000015 225.31064461575784 474.26000000000005 123.12075593918654 11.301884572395844 0.16021871646777983 2.5000000000000004 314.99000000000007 15.65 4.5000000000000009
decision_type=2 2 2 2 2 2 2 2 2 2 2 2 2 2 2 2 2
left_child=7 3 6 4 16 14 8 -1 9 10 11 -3 13 -10 -4 -14 -2
right_child=1 2 5 -5 -6 -7 -8 -9 12 -11 -12 -13 15 -15 -16 -17 -18
leaf_value=0.022543605978359967 -0.035344213144456828 0 -0.034938096062135396 0.018740911701896432 -0.0064814952959990277 -0.01162671380249166 0.02389705328783142 0.037853626334395353 -0.003962080707237128 0.021910492800764663 0.016811121095614202 0.011368626239676728 0.0052732451643340813 0.0077538282079631822 -0.025348591361818856 0.013181281012421487 -0.028259671399148652
leaf_weight=51.172963872551918 332.07004597783089 56.919526696205139 75.322668448090553 52.03778213262558 51.076106086373329 50.283457174897194 55.285220041871071 303.86758299171925 65.083451479673386 52.979011923074722 65.5284383893013 73.637613475322723 72.648223355412483 62.570535078644753 71.311729207634926 58.15657851099968 68.151247560977936
leaf_count=249 1664 229 385 260 208 237 267 1693 261 216 264 297 294 251 348 235 333
internal_value=0.000290838 -0.00966756 0.00108995 -0.0259195 -0.0311174 -0.0257822 0.0105333 0.0357239 0.00902592 0.0126913 0.0100747 0.0065279 0.00541819 0.00167136 -0.0304784 0.00894025 -0.034212
internal_weight=1618.1 1263.06 759.726 503.335 451.297 196.918 562.809 355.041 507.523 249.065 196.086 130.557 258.459 127.654 146.634 130.805 400.221
internal_count=7691 5749 3284 2465 2205 970 2314 1942 2047 1006 790 526 1041 512 733 529 1997
is_linear=0
shrinkage=0.03


Tree=28
num_leaves=18
num_cat=0
split_feature=8 17 1 12 7 12 12 17 13 17 13 16 7 5 17 16 5
split_gain=607.989 235.116 203.419 124.743 36.9734 13.3726 11.4347 9.64486 6.72224 5.70774 4.4866 4.17946 3.40562 7.5943 2.23449 1.80508 1.02348
threshold=1.0000000180025095e-35 201.09500000000003 1.0000000180025095e-35 73.365000000000023 0.28443205847448144 32.980000000000011 66.995000000000019 97.530000000000015 225.31064461575784 474.26000000000005 123.12075593918654 11.301884572395844 0.16021871646777983 1.5000000000000002 314.99000000000007 15.65 3.5000000000000004
decision_type=2 2 2 2 2 2 2 2 2 2 2 2 2 2 2 2 2
left_child=7 3 6 4 16 14 8 -1 9 10 11 -3 13 -10 -4 -14 -2
right_child=1 2 5 -5 -6 -7 -8 -9 12 -11 -12 -13 15 -15 -16 -17 -18
leaf_value=0.022083680386321719 -0.034900715825894837 0 -0.034465822464643074 0.017144164302741863 -0.0062926066578069166 -0.011305621620244621 0.023377111173640979 0.037482915939572321 0.010677090156087834 0.021319706659687281 0.016327189946900335 0.011036792030382376 0.005117903187704516 -0.0041662622984074797 -0.024864627440458146 0.012799962637703504 -0.028008846998395395
leaf_weight=50.68935589492321 329.29993310570717 56.919526696205139 74.089707002043724 54.296230092644691 51.046469032764435 50.176071956753731 54.837368234992027 297.76400747895241 50.589902311563492 52.829814299941063 65.462371006608009 73.591796100139618 72.623252123594284 77.055779650807381 70.540248245000839 58.108056873083115 62.390363067388535
leaf_count=249 1681 229 385 272 208 237 267 1693 203 216 264 297 294 309 348 235 304
internal_value=0.00028592 -0.00944865 0.00106254 -0.025469 -0.0307423 -0.0252942 0.0102393 0.0353206 0.00876766 0.0123319 0.00978452 0.00633855 0.00526038 0.00161827 -0.0299882 0.00868252 -0.0338783
internal_weight=1602.31 1253.86 756.824 497.033 442.737 194.806 562.018 348.453 507.18 248.804 195.974 130.511 258.377 127.646 144.63 130.731 391.69
internal_count=7691 5749 3284 2465 2193 970 2314 1942 2047 1006 790 526 1041 512 733 529 1985
is_linear=0
shrinkage=0.03


Tree=29
num_leaves=19
num_cat=0
split_feature=10 17 1 12 7 12 12 17 17 7 16 16 12 13 11 17 7 0
split_gain=394.389 226.611 223.058 151.596 62.6492 13.9024 12.0164 8.65097 5.29228 3.63538 3.28617 6.08153 5.20244 7.94243 3.49636 2.45618 1.82718 1.51941
threshold=1.0000000180025095e-35 199.78000000000003 1.0000000180025095e-35 80.935000000000016 0.2803414004901878 34.190000000000005 78.725000000000009 107.795 500.00553625698092 0.040554103215571881 11.015742956451707 7.2282339532160771 21.175000000000004 216.30508569461054 104.50000000000001 350.92500000000007 0.16547346853550227 4.5000000000000009
decision_type=2 2 2 2 2 2 2 2 2 2 2 2 2 2 2 2 2 2
left_child=1 3 6 4 17 15 8 -2 9 -3 11 -11 13 16 -15 -4 -12 -1
right_child=7 2 5 -5 -6 -7 -8 -9 -10 10 12 -13 -14 14 -16 -17 -18 -19
leaf_value=-0.032971058023294433 0.021345719410453122 0.0024084896425960131 -0.032799586225812562 0.026991038652828366 0.00081829554454356803 -0.010078642230685927 0.026585635702714477 0.036287234984309649 0.018976623832807665 0.012624489752918838 0.021499629063868195 0.00083055977897257798 0.021825247524839757 0.0004749743109267059 0.011001423909819209 -0.022861516333696676 0.012005576755202654 -0.025896366684338954
leaf_weight=331.43146227300167 51.446313112974167 57.932676181197166 88.358855277299881 50.268564119935036 59.853187948465347 50.082197815179825 50.085241004824638 215.51818241178989 69.948351323604584 86.608035951852798 50.337556466460228 77.198773786425591 50.884631037712097 66.961872473359108 53.311563700437546 58.374428957700729 50.401987820863724 67.576787069439888
leaf_count=1711 264 234 464 260 253 237 260 1274 295 356 207 321 212 277 224 290 213 339
internal_value=0.000281115 -0.00643987 0.00339834 -0.0221188 -0.027555 -0.024328 0.0123277 0.0335092 0.0110116 0.00983449 0.0107836 0.00717699 0.0128842 0.0107133 0.00529128 -0.0290389 0.0169805 -0.0318443
internal_weight=1586.58 1319.62 810.486 509.13 458.861 196.815 613.671 266.964 563.585 493.637 435.704 163.807 271.898 221.013 120.273 146.733 100.74 399.008
internal_count=7691 6153 3590 2563 2303 991 2599 1538 2339 2044 1810 677 1133 921 501 754 420 2050
is_linear=0
shrinkage=0.03


Tree=30
num_leaves=17
num_cat=0
split_feature=8 12 17 1 7 17 11 13 0 13 5 17 17 11 14 0
split_gain=567.166 226.62 256.39 225.602 39.0742 13.0566 3.93044 5.63668 6.07632 5.22124 3.04644 2.8986 2.4993 1.99183 1.85341 0.582302
threshold=1.0000000180025095e-35 100.72000000000001 199.78000000000003 1.0000000180025095e-35 0.28964614561369473 95.800000000000026 21.500000000000004 235.60905802226515 2.5000000000000004 320.98289576617384 3.5000000000000004 314.99000000000007 320.07000000000005 93.500000000000014 11.43156346531207 4.5000000000000009
decision_type=2 2 2 2 2 2 2 2 2 2 2 2 2 2 2 2
left_child=5 2 4 6 10 -1 -4 8 12 -9 15 -5 -8 -11 -10 -2
right_child=1 -3 3 11 -6 -7 7 9 14 13 -12 -13 -14 -15 -16 -17
leaf_value=0.019175210146982719 -0.035963449077949135 0.039557164660972415 0 -0.034629354611829061 -0.0056806812844573317 0.036767363048126347 0.0021686688216932793 -0.001096498139438221 0.012629786630009479 0.012685022531563036 -0.025807256418194733 -0.025341272552003576 0.010860637300156096 0.0050062705424953518 0.020918303198196177 -0.029212006714290719
leaf_weight=50.251258045434952 284.5684375166893 78.726463869214058 50.172588005661964 94.10553303360939 52.460915818810463 288.57046616077423 56.890612289309502 71.387265965342522 71.235809206962585 64.997187450528145 60.64184182882309 89.120581462979317 77.105472594499588 76.569065228104591 62.451321750879288 56.926073744893074
leaf_count=250 1501 419 202 496 214 1704 229 288 289 263 301 443 313 310 254 290
internal_value=-0.000146513 -0.00950748 -0.0128411 -0.00160193 -0.0304404 0.0342345 0.00828631 0.00912004 0.0120632 0.00533061 -0.0336221 -0.0302746 0.0073036 0.00866963 0.016677 -0.0349262
internal_weight=1586.18 1247.36 1168.63 714.035 454.597 338.822 530.809 480.637 267.683 212.954 402.136 183.226 133.996 141.566 133.687 341.495
internal_count=7766 5812 5393 3087 2306 1954 2148 1946 1085 861 2092 939 542 573 543 1791
is_linear=0
shrinkage=0.03


Tree=31
num_leaves=17
num_cat=0
split_feature=8 12 17 1 7 17 7 11 3 7 17 17 5 17 16 0
split_gain=543.143 216.582 246.182 215.036 38.1397 12.2196 3.89311 4.53657 4.50098 6.19393 3.68846 7.3555 3.04747 2.89486 1.36256 0.604542
threshold=1.0000000180025095e-35 100.72000000000001 199.78000000000003 1.0000000180025095e-35 0.28964614561369473 97.530000000000015 0.030218889046755262 33.500000000000007 939.00000000000011 0.11959033162366685 404.49500000000006 297.72500000000008 3.5000000000000004 314.99000000000007 12.417082626248257 4.5000000000000009
decision_type=2 2 2 2 2 2 2 2 2 2 2 2 2 2 2 2
left_child=5 2 4 6 12 -1 -4 -8 9 -9 11 14 15 -5 -11 -2
right_child=1 -3 3 13 -6 -7 7 8 -10 10 -12 -13 -14 -15 -16 -17
leaf_value=0.01953773949423886 -0.035514039802840791 0.0391460238606883 8.7738459001490332e-05 -0.034180984857687786 -0.0055149341503679316 0.03641976695271644 0.0017477369410760142 0.015290628164188171 0.018702759002200985 0.01195266264641406 0.011784430508491546 -0.0040971050691127392 -0.02532487794511128 -0.024865226732311972 0.0045973391716826522 -0.028730009318805802
leaf_weight=51.883927211165428 279.60598075389862 77.195134833455086 53.511031046509743 92.510526150465012 52.431935787200928 280.50914306938648 72.764774233102798 99.312093108892441 51.512619361281395 55.291638597846031 77.005615696310997 65.543322846293449 59.962897762656212 88.126730993390083 55.487607449293137 56.16465713083744
leaf_count=262 1501 419 215 496 214 1692 294 400 210 224 315 266 301 443 224 290
internal_value=-0.000142565 -0.00930652 -0.0125615 -0.00155872 -0.029964 0.033863 0.00804963 0.00891053 0.0101593 0.00884412 0.00623266 0.00369674 -0.0331544 -0.0298001 0.0084405 -0.0344683
internal_weight=1568.82 1236.43 1159.23 711.066 448.165 332.393 530.429 476.918 404.153 352.64 253.328 176.323 395.734 180.637 110.779 335.771
internal_count=7766 5812 5393 3087 2306 1954 2148 1933 1639 1429 1029 714 2092 939 448 1791
is_linear=0
shrinkage=0.03


Tree=32
num_leaves=17
num_cat=0
split_feature=8 12 17 1 7 17 13 13 14 11 5 0 17 14 0 0
split_gain=520.228 207.045 236.429 204.992 37.239 12.2432 3.69147 4.92805 3.60581 3.19365 3.05078 3.02585 2.89287 1.47853 1.45233 0.6278
threshold=1.0000000180025095e-35 100.72000000000001 199.78000000000003 1.0000000180025095e-35 0.28964614561369473 97.530000000000015 225.31064461575784 276.77148731403202 14.484963693867877 83.500000000000014 3.5000000000000004 2.5000000000000004 314.99000000000007 9.7631783433355661 2.5000000000000004 4.5000000000000009
decision_type=2 2 2 2 2 2 2 2 2 2 2 2 2 2 2 2
left_child=5 2 4 6 10 -1 8 -8 11 -9 15 13 -5 -4 -11 -2
right_child=1 -3 3 12 -6 -7 7 9 -10 14 -12 -13 -14 -15 -16 -17
leaf_value=0.019127232154556421 -0.035079102945280105 0.038753282156617087 0.008239526462667476 -0.033745821188169135 -0.0053540164895412795 0.036099115164303523 -0.00075863910762747234 0.012130435104745908 0.017883080027169998 0.00055707242926881823 -0.024852678973692831 0.012392951624109307 -0.024399051216256087 0.00062197572627808052 0.0077504215149267666 -0.028258813992669767
leaf_weight=51.425288796424866 274.66174332797527 75.666338622570038 50.368215054273605 90.922914281487465 52.403039172291756 274.60456722974777 80.569868728518486 90.099728047847748 51.513182803988457 56.911058083176613 59.288905248045921 96.753296062350273 87.140790224075317 50.398093983530998 53.446744948625565 55.407984778285027
leaf_count=262 1501 419 204 496 214 1692 326 364 210 230 301 393 443 204 217 290
internal_value=-0.000138688 -0.00911012 -0.0122882 -0.00151659 -0.0294995 0.0335014 0.00781966 0.00533733 0.0105445 0.00785791 -0.0326996 0.00851452 -0.0293368 0.00459963 0.00419539 -0.034024
internal_weight=1551.58 1225.55 1149.89 708.124 441.762 326.03 530.06 281.027 249.033 200.458 389.359 197.52 178.064 100.766 110.358 330.07
internal_count=7766 5812 5393 3087 2306 1954 2148 1137 1011 811 2092 801 939 408 447 1791
is_linear=0
shrinkage=0.03


Tree=33
num_leaves=17
num_cat=0
split_feature=8 17 1 16 7 17 16 16 0 16 13 7 14 13 17 0
split_gain=479.131 181.505 152.609 65.2265 38.9347 13.4111 12.2953 8.06042 4.97226 6.62496 4.03535 3.88415 3.63202 2.78121 1.68531 1.68365
threshold=1.0000000180025095e-35 199.78000000000003 1.0000000180025095e-35 3.4078445136905535 0.28964614561369473 99.055000000000021 7.9066068270435315 7.2282339532160771 1.5000000000000002 13.901346649787984 235.60905802226515 0.16021871646777983 9.7113534553194345 228.08053979066813 332.27500000000003 4.5000000000000009
decision_type=2 2 2 2 2 2 2 2 2 2 2 2 2 2 2 2
left_child=5 3 7 -2 15 -1 -4 13 9 -9 12 -12 -10 -3 -8 -5
right_child=1 2 6 4 -6 -7 14 8 10 -11 11 -13 -14 -15 -16 -17
leaf_value=0.01794233546840188 0.0072492924980391777 0.0099522456810436817 -0.011199956815189907 -0.032281730350353498 -0.0031728059541890571 0.035752027910217428 -0.032819505334297006 -0.0067607325751837524 0.0053793706502916544 0.0065893432508630908 -0.00073518503189901887 0.0093740741680716794 0.015581752381564666 0.01897129453327406 -0.023297683644924964 -0.024674764933025249
leaf_weight=50.638547778129578 54.437417238950729 79.09147435426712 56.034878075122833 292.48770569264889 53.193963199853897 264.87810790538788 68.465656459331512 54.083417668938637 57.11567011475563 84.493991121649742 64.383561819791794 66.733075052499771 91.606106489896774 69.611503630876541 55.032356470823288 60.624841794371605
leaf_count=261 289 330 281 1619 220 1669 387 218 234 342 259 272 375 325 287 320
internal_value=7.70517e-05 -0.00851727 0.000602991 -0.0233141 -0.0274498 0.0329741 -0.0234423 0.00825538 0.0060482 0.0012657 0.00835653 0.00431212 0.0117953 0.0143242 -0.0288085 -0.0310549
internal_weight=1522.91 1207.4 746.652 460.744 406.307 315.517 179.533 567.119 418.416 138.577 279.838 131.117 148.722 148.703 123.498 353.113
internal_count=7688 5758 3310 2448 2159 1930 955 2355 1700 560 1140 531 609 655 674 1939
is_linear=0
shrinkage=0.03


Tree=34
num_leaves=17
num_cat=0
split_feature=8 12 17 1 7 17 17 5 7 11 11 18 14 14 12 0
split_gain=458.945 194.631 205.076 166.85 38.0899 13.4217 3.8428 2.94097 2.85489 2.47952 2.97491 4.14518 4.19256 2.94933 2.26902 0.62443
threshold=1.0000000180025095e-35 98.645000000000024 199.78000000000003 1.0000000180025095e-35 0.28964614561369473 99.055000000000021 356.67000000000007 3.5000000000000004 0.030218889046755262 27.500000000000004 50.500000000000007 1.0000000180025095e-35 10.600427701027089 14.230650081374852 20.660000000000004 4.5000000000000009
decision_type=2 2 2 2 2 2 2 2 2 2 2 2 2 2 2 2
left_child=5 2 4 8 7 -1 -5 15 -4 -10 -11 -12 14 -14 -13 -2
right_child=1 -3 3 6 -6 -7 -8 -9 9 10 11 12 13 -15 -16 -17
leaf_value=0.017557905485394137 -0.034089783787169779 0.037035390573868468 0 -0.031957017575864048 -0.004168858496070702 0.035453727527788588 -0.020999169753161299 -0.023976124327782004 0.00098762105633663148 0.014106982762333077 0 0.00089569903334497871 0.015539287285997391 0.0068230715545196568 0.0091291851459278494 -0.02708564144975352
leaf_weight=50.212334200739861 254.80531014502048 78.880650714039803 55.204664871096611 102.47991107404232 53.585884630680084 259.18391820788383 62.303989574313164 59.306873664259911 56.372837871313095 65.549789771437645 64.100935384631157 82.254388555884361 86.966453522443771 74.554181486368179 51.910794943571091 50.770307496190071
leaf_count=261 1440 443 222 572 219 1669 323 310 228 266 260 334 353 304 211 273
internal_value=7.52984e-05 -0.00832276 -0.0115453 -0.00160501 -0.0281558 0.0326308 -0.0279807 -0.0316269 0.00648053 0.00722037 0.00800908 0.00683843 0.0083355 0.0116421 0.00421483 -0.0330212
internal_weight=1508.44 1199.05 1120.17 701.698 418.468 309.396 164.784 364.882 536.914 481.709 425.337 359.787 295.686 161.521 134.165 305.576
internal_count=7688 5758 5315 3073 2242 1930 895 2023 2178 1956 1728 1462 1202 657 545 1713
is_linear=0
shrinkage=0.03


Tree=35
num_leaves=17
num_cat=0
split_feature=8 12 17 1 7 17 17 5 7 11 3 11 17 17 11 0
split_gain=439.801 186.021 195.578 159.15 36.4986 13.047 3.47697 2.80379 2.72631 2.36655 2.94254 4.21403 3.80218 7.28758 1.65002 0.788306
threshold=1.0000000180025095e-35 100.72000000000001 199.78000000000003 1.0000000180025095e-35 0.28964614561369473 100.61000000000001 356.67000000000007 3.5000000000000004 0.030218889046755262 27.500000000000004 939.00000000000011 50.500000000000007 297.72500000000008 404.49500000000006 104.50000000000001 4.5000000000000009
decision_type=2 2 2 2 2 2 2 2 2 2 2 2 2 2 2 2
left_child=5 2 4 8 7 -1 -5 15 -4 -10 11 -11 14 -14 -13 -2
right_child=1 -3 3 6 -6 -7 -8 -9 9 10 -12 12 13 -15 -16 -17
leaf_value=0.017535139572381096 -0.033439522751551917 0.037959721379586746 0 -0.031313950652589337 -0.0040467077916183335 0.035158917720664644 -0.020735946698927636 -0.023449908976735531 0.00095831545188984461 0.014522322177201457 0.014691080133442409 0.0049276686851633033 -0.0038399656936627582 0.0081116225523119572 0.012225984804395875 -0.026229627879032203
leaf_weight=50.710269019007683 251.6097184419632 73.25569249689579 55.204664871096611 100.99532797932625 53.562734872102737 252.64119747281075 61.929055958986282 59.10188502073288 56.369181081652641 55.927332282066345 52.869595721364021 59.48205378651619 85.534582749009132 95.744908839464188 76.880980670452118 50.33051809668541
leaf_count=267 1446 425 222 573 219 1663 324 312 228 227 217 240 347 392 312 274
internal_value=7.43624e-05 -0.00814527 -0.011202 -0.0015137 -0.0275235 0.0322959 -0.0274607 -0.0309545 0.00633406 0.00705548 0.00782424 0.00679397 0.0053654 0.00239484 0.00918166 -0.0323326
internal_weight=1492.15 1188.8 1115.54 700.938 414.605 303.351 162.924 361.042 538.013 482.809 426.439 373.57 317.643 181.279 136.363 301.94
internal_count=7688 5758 5333 3082 2251 1930 897 2032 2185 1963 1735 1518 1291 739 552 1720
is_linear=0
shrinkage=0.03


Tree=36
num_leaves=21
num_cat=0
split_feature=8 12 7 5 7 3 5 16 11 18 16 12 18 7 16 14 7 11 11 10
split_gain=431.104 168.091 65.4431 19.5511 11.4562 3.76476 3.19106 2.39841 3.22452 3.4385 2.22871 3.37625 4.9966 5.55578 3.12232 2.34556 2.19443 2.13469 0.943417 0.0117909
threshold=1.0000000180025095e-35 100.72000000000001 0.29046573471732268 4.5000000000000009 0.27992332768226447 747.50000000000011 1.5000000000000002 3.8388032496046862 164.50000000000003 4.5000000000000009 8.4148271359555942 9.1800000000000015 1.5000000000000002 0.072292683773666017 5.5021288392754419 11.911745414897055 0.070045152020647775 97.500000000000014 76.500000000000014 1.0000000180025095e-35
decision_type=2 2 2 2 2 2 2 2 2 2 2 2 2 2 2 2 2 2 2 2
left_child=16 2 3 4 5 7 -7 -2 9 10 14 17 18 -14 -9 -15 -1 -12 -13 -18
right_child=1 -3 -4 -5 -6 6 -8 8 -10 -11 11 12 13 15 -16 -17 19 -19 -20 -21
leaf_value=0.024217222326605468 -0.021137807934500298 0.037163081491353084 0.015338433264369181 0.0031750379571453833 -0.027092700592031629 -0.0024675211229500736 -0.012452548323510221 -0.014038789340291168 -0.020355858495263147 -0.018462788941055706 -0.01183836711113488 -0.015372083177487773 -0.020054590722441187 -0.011720093695381018 -0.0041812616718687181 -0.0034314781852025928 0.037586045357393114 -0.0033952962233235904 -0.022740641573893633 0.031738578792993757
leaf_weight=50.049310743808746 50.121337592601776 68.121992021799088 77.002244502305984 60.306717738509178 60.446840032935143 56.153159379959106 70.828473299741745 51.306483969092369 66.928781941533089 96.965447723865509 75.841402769088745 52.66177798807621 52.028081774711609 77.286604627966881 81.481230050325394 62.258505597710609 59.182949870824814 51.766377612948418 68.565106347203255 191.57573156058788
leaf_count=324 235 403 330 283 278 276 346 249 330 479 368 266 262 374 393 305 359 251 345 1268
internal_value=-0.000179023 -0.0083636 -0.0111817 -0.0131758 -0.014204 -0.013321 -0.00818168 -0.0141253 -0.0136141 -0.0129037 -0.0119219 -0.0130174 -0.0147726 -0.0115084 -0.00814093 -0.00815466 0.0318399 -0.00855699 -0.0197392 0.0332504
internal_weight=1480.88 1180.07 1111.95 1034.95 974.64 914.193 126.982 787.211 737.09 670.161 573.196 440.408 312.8 191.573 132.788 139.545 300.808 127.608 121.227 250.759
internal_count=7724 5773 5370 5040 4757 4479 622 3857 3622 3292 2813 2171 1552 941 642 679 1951 619 611 1627
is_linear=0
shrinkage=0.03


Tree=37
num_leaves=17
num_cat=0
split_feature=8 17 1 12 0 17 16 12 5 3 7 11 16 17 13 18
split_gain=412.714 179.342 141.696 87.4944 18.7827 13.9323 11.1597 7.9615 5.92522 3.96855 2.90739 3.16678 3.53456 3.59074 2.66859 1.72644
threshold=1.0000000180025095e-35 199.78000000000003 1.0000000180025095e-35 73.365000000000023 4.5000000000000009 102.24327815229695 7.9066068270435315 53.000000000000007 3.5000000000000004 920.50000000000011 0.26013608606979094 124.50000000000001 15.65 286.07832145841491 225.31064461575784 2.5000000000000004
decision_type=2 2 2 2 2 2 2 2 2 2 2 2 2 2 2 2
left_child=5 3 7 4 8 -1 -4 9 -2 10 11 12 13 -3 -13 -14
right_child=1 2 6 -5 -6 -7 -8 -9 -10 -11 -12 14 15 -15 -16 -17
leaf_value=0.01635445924982748 -0.033145919060449447 -0.0024492174092071821 -0.010697998709894286 0.01356606970052596 -0.013551833805339763 0.03454030784476432 -0.028064671446404114 0.017990698381309417 -0.020966144524951956 0.014190537518209777 0.011883570789246201 0.0052190805799397525 0.0065910798493343864 0.0069720878348317628 -0.0040123462466583742 0.014938637460280992
leaf_weight=50.575298607349396 266.39753331243992 56.293928802013397 51.930117353796959 50.661262914538383 70.973035216331482 244.44833159446716 118.97223277390003 67.723455563187599 54.35617758333683 60.642455190420151 62.78761337697506 53.63475301861763 59.350169897079468 93.013661667704582 57.729779258370399 50.82755409181118
leaf_count=274 1535 226 271 283 373 1677 683 338 285 248 263 217 239 375 232 205
internal_value=-0.000176113 -0.00815188 0.000935757 -0.0232253 -0.028033 0.0315064 -0.0229218 0.0082313 -0.0311644 0.00684698 0.0057703 0.00468028 0.006497 0.0033235 0.000303006 0.0106276
internal_weight=1470.32 1175.29 732.906 442.388 391.727 295.024 170.902 562.003 320.754 494.28 433.637 370.85 259.485 149.308 111.365 110.178
internal_count=7724 5773 3297 2476 2193 1951 954 2343 1820 2005 1757 1494 1045 601 449 444
is_linear=0
shrinkage=0.03


Tree=38
num_leaves=17
num_cat=0
split_feature=8 17 1 12 0 17 16 12 5 17 17 12 12 16 14 12
split_gain=395.422 171.565 134.618 83.8168 18.4195 13.9387 10.9289 7.58051 5.88638 2.58643 3.01451 2.92654 2.77876 3.61165 2.81214 1.14518
threshold=1.0000000180025095e-35 199.78000000000003 1.0000000180025095e-35 73.365000000000023 4.5000000000000009 102.24327815229695 7.9066068270435315 53.000000000000007 3.5000000000000004 265.04250386455107 238.60500000000005 21.905000000000005 9.7150000000000016 16.601780026590443 11.530171763719485 31.055000000000003
decision_type=2 2 2 2 2 2 2 2 2 2 2 2 2 2 2 2
left_child=5 3 7 4 8 -1 -4 9 -2 10 -3 12 14 -14 -11 -13
right_child=1 2 6 -5 -6 -7 -8 -9 -10 11 -12 15 13 -15 -16 -17
leaf_value=0.016001466558231387 -0.032730424964489406 0.0064288683445992041 -0.0104121279767655 0.013200894781617657 -0.013226006621944817 0.03427562571188366 -0.027655048336125886 0.017556110874938344 -0.020539926939552831 0.0050827288408547607 -0.0024473972257265529 0.016087884956019469 -0.002861305486673718 0.0071271007272315978 0.014876538925050749 0.008491954693347431
leaf_weight=50.157689243555069 261.76263508200645 89.310049191117287 51.77138563990593 50.516875356435776 70.55851873755455 239.03176034986973 117.14757353067398 67.336214303970337 53.837883681058884 67.877059772610664 52.471893668174744 50.842511102557182 53.057906255125999 77.308804586529732 52.320267096161842 50.722226485610008
leaf_count=274 1535 361 271 283 373 1677 683 338 285 277 212 206 215 313 215 206
internal_value=-0.000171125 -0.00796677 0.000912138 -0.0228316 -0.0275951 0.031191 -0.0225052 0.00800053 -0.0307341 0.00665102 0.00304138 0.0080555 0.00617225 0.0029519 0.00951409 0.0125016
internal_weight=1456.03 1166.84 730.166 436.676 386.159 289.189 168.919 561.247 315.601 493.911 141.782 352.129 250.564 130.367 120.197 101.565
internal_count=7724 5773 3297 2476 2193 1951 954 2343 1820 2005 573 1432 1020 528 492 412
is_linear=0
shrinkage=0.03


Tree=39
num_leaves=17
num_cat=0
split_feature=8 12 17 1 7 17 15 3 18 7 17 0 17 16 0 12
split_gain=382.834 161.036 167.317 155.726 43.0721 11.6954 3.74295 5.50643 3.42723 4.4448 2.9842 2.97573 2.71466 2.45697 2.40255 1.95006
threshold=1.0000000180025095e-35 100.72000000000001 199.78000000000003 1.0000000180025095e-35 0.28443205847448144 100.61000000000001 1.0000000180025095e-35 939.00000000000011 1.0000000180025095e-35 0.060096897637860365 321.88500000000005 2.5000000000000004 317.9316220360011 15.51540836312452 4.5000000000000009 21.295000000000005
decision_type=2 2 2 2 2 2 2 2 2 2 2 2 2 2 2 2
left_child=5 2 4 6 14 -1 7 8 -4 -10 -8 13 -5 -11 -2 -13
right_child=1 -3 3 12 -6 -7 10 -9 9 11 -12 15 -14 -15 -16 -17
leaf_value=0.016976318276399133 -0.03114751203249988 0.036778976340035387 -0.00026361218324164054 -0.03183656999821842 -6.2326568481231516e-05 0.033904939266293815 -0.0040024451339235236 0.016426131926540015 0 0.0083344512777429273 0.0061123964449262417 0.0023295489115488116 -0.022409111308665668 0.01751306633664123 -0.022838314554777285 0.010201202794236095
leaf_weight=50.020575568079948 285.19757007062435 68.512232080101967 60.348451375961304 80.983598083257675 51.492561966180801 236.65108267962933 51.821455493569374 54.956558257341385 60.317527696490288 74.694780603051186 51.093003496527672 79.026646539568901 81.349056601524353 53.72725684940815 61.030411511659622 50.908917978405952
leaf_count=275 1719 419 245 488 212 1700 210 226 243 303 208 323 446 218 340 208
internal_value=3.52622e-07 -0.00763125 -0.0104341 -0.00157015 -0.0259586 0.031038 0.00619591 0.00741969 0.00605435 0.00729634 0.000879404 0.00900529 -0.0272877 0.0123438 -0.0297611 0.00555595
internal_weight=1452.13 1165.46 1096.95 699.227 397.721 286.672 536.895 433.98 379.024 318.675 102.914 258.358 162.333 128.422 346.228 129.936
internal_count=7783 5808 5389 3118 2271 1975 2184 1766 1540 1295 418 1052 934 521 2059 531
is_linear=0
shrinkage=0.03


Tree=40
num_leaves=18
num_cat=0
split_feature=8 12 17 7 17 5 15 3 5 17 17 17 14 17 5 14 11
split_gain=367.044 154.151 160.728 41.8444 11.4458 7.42844 5.3346 4.66781 4.86139 5.53119 5.5143 4.53382 4.92953 3.71998 1.70891 1.58538 0.100208
threshold=1.0000000180025095e-35 100.72000000000001 199.78000000000003 0.28443205847448144 102.24327815229695 3.5000000000000004 1.0000000180025095e-35 1366.0000000000002 2.5000000000000004 356.67000000000007 455.36000000000007 299.79500000000002 9.9656791206173914 321.88500000000005 3.5000000000000004 11.218539505229389 132.50000000000003
decision_type=2 2 2 2 2 2 2 2 2 2 2 2 2 2 2 2 2
left_child=4 2 3 14 -1 6 7 8 9 11 -11 12 -4 -8 16 -7 -2
right_child=1 -3 5 -5 -6 15 13 -9 -10 10 -12 -13 -14 -15 -16 -17 -18
leaf_value=0.016889110898559719 -0.031887628470143266 0.036462666594347617 0.0059261276835518035 -6.0474869725278108e-05 0.033646527452550604 0.0093204809672107255 -0.014029263556642534 0.0070860247683670946 -0.0090048033708581676 0.0091103278328305889 -0.0026434620915038658 -0.01149138947042965 -0.0054076126114385127 -0.0027333615390835869 -0.02284148259429471 0.00162286407288013 -0.026823438047848765
leaf_weight=50.286598160862923 204.60732038319111 67.059690460562706 53.105607286095619 51.492166861891747 230.64228171110153 54.079160898923874 58.504829034209251 50.313830941915512 82.796615943312645 76.471479684114456 64.262984603643417 54.104835152626038 94.346566691994667 54.867695450782776 56.659162253141403 53.575867354869843 79.181511223316193
leaf_count=280 1260 419 239 212 1695 239 266 226 376 335 285 239 434 241 314 238 485
internal_value=1.02823e-06 -0.00746879 -0.0102049 -0.0255618 0.0307356 -0.00152862 -0.002871 -0.00143448 -0.00248536 -0.000853779 0.00364668 -0.00407165 -0.0012181 -0.00873024 -0.029369 0.00565357 -0.0305771
internal_weight=1436.36 1155.43 1088.37 391.94 280.929 696.429 588.774 475.402 425.088 342.291 140.734 201.557 147.452 113.373 340.448 107.655 283.789
internal_count=7783 5808 5389 2271 1975 3118 2641 2134 1908 1532 620 912 673 507 2059 477 1745
is_linear=0
shrinkage=0.03


Tree=41
num_leaves=18
num_cat=0
split_feature=8 7 1 16 16 7 18 15 7 11 11 7 7 13 13 11 7
split_gain=351.804 138.835 104.048 32.9952 26.8695 13.1358 3.60173 5.77 8.87076 4.66547 4.2718 3.77152 3.04245 2.67291 1.92566 1.63868 0.944565
threshold=1.0000000180025095e-35 0.30066348200882159 1.0000000180025095e-35 4.3303319722293141 3.4078445136905535 0.27992332768226447 1.0000000180025095e-35 1.0000000180025095e-35 0.040554103215571881 30.500000000000004 122.50000000000001 0.2194788868157159 0.11027968994044922 235.60905802226515 235.60905802226515 86.500000000000014 0.16298635558136174
decision_type=2 2 2 2 2 2 2 2 2 2 2 2 2 2 2 2 2
left_child=12 2 4 -4 -2 6 15 8 -8 -10 11 13 -1 -11 -9 -6 -12
right_child=1 -3 3 -5 5 -7 7 14 9 10 16 -13 -14 -15 -16 -17 -18
leaf_value=0.02405535653966797 0.013355096111009929 0.037944196908614294 -0.0024889549823398824 -0.029571900119295825 -0.0049058169706940723 -0.01926335278211742 -0.011963104022414722 -0.0053189603172597941 -0.0081676386459836516 0.010076385888627864 -0.0058876456597642826 -0.0031304078559407332 0.032700822549627112 0.0019444151714074333 -0.014318327647689212 -0.012759860681476625 -0.00022340075337583121
leaf_weight=75.302336931228638 71.549099981784821 57.366274535655975 50.169459193944931 242.6120061725378 52.301708668470383 60.090923488140106 67.481359139084816 51.389895603060722 55.72365315258503 78.515879943966866 61.033776447176933 50.11396336555481 199.98048387467861 78.140817373991013 50.241201639175415 64.567617520689964 56.816902458667755
leaf_count=538 401 262 275 1516 247 260 320 244 257 353 284 236 1437 353 237 300 263
internal_value=6.50484e-07 -0.00729436 -0.00970365 -0.0249944 -0.0040624 -0.0058066 -0.004557 -0.00349017 -0.00197828 -0.000153988 0.00118592 0.00381464 0.0304382 0.00613467 -0.00996297 -0.00940867 -0.00329608
internal_weight=1423.4 1148.11 1090.75 292.781 797.967 726.418 666.327 549.457 447.826 380.345 324.621 206.771 275.283 156.657 101.631 116.869 117.851
internal_count=7783 5808 5546 1791 3755 3354 3094 2547 2066 1746 1489 942 1975 706 481 547 547
is_linear=0
shrinkage=0.03


Tree=42
num_leaves=16
num_cat=0
split_feature=8 12 17 7 17 7 11 11 13 17 11 5 13 0 0
split_gain=340.877 148.928 169.711 29.5521 15.5219 4.54169 8.03067 4.74257 3.20014 4.45204 5.04522 3.90234 3.04521 2.9327 1.76284
threshold=1.0000000180025095e-35 100.72000000000001 199.78000000000003 0.28443205847448144 106.50000000000001 0.2803414004901878 122.50000000000001 141.50000000000003 361.10778112045858 474.26000000000005 103.50000000000001 1.5000000000000002 225.31064461575784 4.5000000000000009 2.5000000000000004
decision_type=2 2 2 2 2 2 2 2 2 2 2 2 2 2 2
left_child=4 2 3 13 -1 6 8 -8 9 10 11 -4 -13 -2 -9
right_child=1 -3 5 -5 -6 -7 7 14 -10 -11 -12 12 -14 -15 -16
leaf_value=0.014720368811881091 -0.030571587428191358 0.036501295560945238 0.00058885316372865094 -0.0042972340883063332 0.033973955225102777 0.0066306726092277635 -0.012993944115922158 -0.0066438483102285364 0.0068171913744851168 0.0064483625117896064 0.0064006789706316765 -0.0028669765806536539 -0.011805713773515148 -0.021578208472260496 0.00012152733475972794
leaf_weight=50.651727363467216 276.18595904111862 65.459247887134552 98.943227738142014 51.621274501085281 216.21521763503551 62.917804017663002 70.899453818798065 64.274654120206833 62.064349174499512 66.244341716170311 50.379268229007721 83.384135320782661 66.295417428016663 58.477576375007629 65.499863758683205
leaf_count=294 1736 422 446 213 1659 290 320 284 277 292 224 375 297 337 298
internal_value=-7.41983e-05 -0.00721715 -0.00990349 -0.0258163 0.0304101 -0.0009727 -0.00176302 -0.00671107 0.000530755 -0.000504312 -0.00210296 -0.00389569 -0.00695209 -0.0290794 -0.00312672
internal_weight=1409.51 1142.65 1077.19 386.285 266.867 690.903 627.985 200.674 427.311 365.246 299.002 248.623 149.68 334.664 129.775
internal_count=7764 5811 5389 2286 1953 3103 2813 902 1911 1634 1342 1118 672 2073 582
is_linear=0
shrinkage=0.03


Tree=43
num_leaves=18
num_cat=0
split_feature=8 17 1 7 17 13 7 11 13 13 11 0 0 18 14 5 13
split_gain=326.797 140.509 124.477 25.5992 15.532 4.18557 3.65856 2.96986 2.33569 3.01607 4.4822 4.04013 2.13343 1.75069 1.29088 0.839852 1.06015
threshold=1.0000000180025095e-35 199.78000000000003 1.0000000180025095e-35 0.28443205847448144 106.50000000000001 216.30508569461054 0.030218889046755262 23.500000000000004 104.02929000128321 321.24114385923951 63.500000000000007 1.5000000000000002 3.5000000000000004 3.5000000000000004 12.199687823706755 2.5000000000000004 337.34514003418275
decision_type=2 2 2 2 2 2 2 2 2 2 2 2 2 2 2 2 2
left_child=4 3 6 5 -1 -2 -3 -8 -9 10 -10 -12 -13 -4 -11 16 -7
right_child=1 2 13 -5 -6 15 7 8 9 14 11 12 -14 -15 -16 -17 -18
leaf_value=0.014399654352220601 -0.029163815537873332 7.2100814626271906e-05 -0.024678114750000778 -0.0017292358102112776 0.033754231000714792 -0.025947767316393654 0.0011993087678533164 0.013606259885169579 0.012963763766530637 0.013842538855639604 -0.0040526811093369378 0.010618274989758062 0.0016163041836017775 -0.016830615637894449 0.0072001752010193154 -0.017785894959873778 -0.018704557841267982
leaf_weight=50.243856132030487 117.91557934880257 55.333152130246162 102.41537280380726 54.92863205075264 211.17350797355175 91.205385953187943 50.316261827945709 97.620381012558937 54.134012013673782 89.815913394093513 50.018572092056274 50.490743160247803 53.283449962735176 64.88981220126152 57.897923335433006 84.802515149116516 60.219023436307907
leaf_count=294 737 226 603 236 1659 594 211 402 224 394 207 211 224 381 252 521 388
internal_value=-7.07856e-05 -0.00704751 0.000856292 -0.0210995 0.0301262 -0.0240549 0.00767342 0.00847799 0.00925073 0.00799563 0.00550261 0.00274561 0.00616993 -0.021783 0.0113733 -0.0213852 -0.023237
internal_weight=1396.7 1135.29 726.216 409.071 261.417 354.143 558.91 503.577 453.261 355.641 207.927 153.793 103.774 167.305 147.714 236.227 151.424
internal_count=7764 5811 3335 2476 1953 2240 2351 2125 1914 1512 866 642 435 984 646 1503 982
is_linear=0
shrinkage=0.03


Tree=44
num_leaves=17
num_cat=0
split_feature=10 12 17 1 7 17 7 11 3 11 7 11 12 7 5 17
split_gain=207.073 142.796 154.684 152.318 39.9892 14.1099 4.18703 3.08174 4.07048 4.76521 4.12893 3.44572 4.42777 4.37373 2.79279 1.64407
threshold=1.0000000180025095e-35 100.72000000000001 199.78000000000003 1.0000000180025095e-35 0.2803414004901878 116.35500000000002 0.030218889046755262 23.500000000000004 939.00000000000011 123.50000000000001 0.20069925126770868 104.50000000000001 7.8050000000000006 0.20970476881140868 3.5000000000000004 350.92500000000007
decision_type=2 2 2 2 2 2 2 2 2 2 2 2 2 2 2 2
left_child=1 2 4 6 14 -2 -4 -8 9 11 -11 12 -9 -14 -1 -5
right_child=5 -3 3 15 -6 -7 7 8 -10 10 -12 -13 13 -15 -16 -17
leaf_value=-0.028140623951630098 0.013567429096060117 0.036213398362422496 0 -0.028841713042355544 0 0.032720728978002149 0.0013812196652621936 0.016097378123677463 0.017113123759762372 -4.7940527754530085e-05 0.010421309956386125 0.018072078111090475 0.0098443004397288734 -0.00048518230948698012 -0.019380034697841022 -0.020619299824763865
leaf_weight=275.30607587099075 50.217699728906155 70.971018329262733 54.900929763913155 90.148779109120369 58.16725780069828 150.58336140215397 50.648564293980598 58.08847239613533 59.614732816815376 88.579988643527031 51.75554433465004 51.207680255174637 97.286336146295071 54.884910866618156 57.328649058938026 64.918272525072098
leaf_count=1789 315 475 223 565 257 1244 214 251 257 373 229 218 415 239 333 367
internal_value=-6.82913e-05 -0.00486044 -0.00750848 0.000702936 -0.0226995 0.0280509 0.00793216 0.00877555 0.00955236 0.00837342 0.00372989 0.0107966 0.00891483 0.00603104 -0.0267071 -0.0255732
internal_weight=1384.61 1183.81 1112.84 722.034 390.802 200.801 566.967 512.066 461.418 401.803 140.336 261.467 210.26 152.171 332.635 155.067
internal_count=7764 6205 5730 3351 2379 1559 2419 2196 1982 1725 602 1123 905 654 2122 932
is_linear=0
shrinkage=0.03


Tree=45
num_leaves=16
num_cat=0
split_feature=8 17 1 12 0 17 12 13 17 17 17 12 13 18 5
split_gain=297.009 132.853 107.414 57.8245 21.2938 11.3741 7.02529 4.74979 5.40995 4.55369 5.86725 3.73106 1.89683 1.41194 1.3839
threshold=1.0000000180025095e-35 201.09500000000003 1.0000000180025095e-35 65.780000000000015 4.5000000000000009 107.795 53.000000000000007 235.60905802226515 432.99000000000007 425.40500000000003 266.02000000000004 15.955000000000002 151.89586535660646 2.5000000000000004 2.5000000000000004
decision_type=2 2 2 2 2 2 2 2 2 2 2 2 2 2 2
left_child=5 3 6 4 14 -1 7 8 12 10 -9 -4 13 -3 -2
right_child=1 2 11 -5 -6 -7 -8 9 -10 -11 -12 -13 -14 -15 -16
leaf_value=0.015925580246833687 -0.030394488607296353 0.0066097311254039049 -0.02601915029821256 0.0089419267320209449 -0.0091142211190058751 0.032789275988501697 0.016725530184024017 -0.001894771929441762 0.015772618662836701 -0.0050209066521287723 0.0097928488047301192 -0.015735163915127023 0.0094942231445754033 0 -0.024192491609462345
leaf_weight=50.384295202791691 184.26892995834351 61.848718479275703 71.657003194093704 51.947942078113556 67.361729249358177 201.05394734442234 65.504036977887154 61.385406211018562 73.353506341576576 51.436749324202538 95.438084214925766 86.948209643363953 88.96446704864502 61.032670065760612 99.343827471137047
leaf_count=302 1201 252 445 313 379 1647 345 248 305 209 387 511 361 248 604
internal_value=6.40236e-05 -0.00654002 0.00118324 -0.020316 -0.0246958 0.0295079 0.00738765 0.00610206 0.00863737 0.00254588 0.00513114 -0.0205429 0.00606477 0.0034319 -0.0283212
internal_weight=1371.93 1120.49 717.569 402.922 350.974 251.438 558.964 493.46 285.199 208.26 156.823 158.605 211.846 122.881 283.613
internal_count=7757 5808 3311 2497 2184 1949 2355 2010 1166 844 635 956 861 500 1805
is_linear=0
shrinkage=0.03


Tree=46
num_leaves=16
num_cat=0
split_feature=8 12 17 1 0 17 5 13 17 17 13 17 16 16 16
split_gain=284.82 130.225 148.582 123.146 24.2775 11.1877 5.17511 3.71165 5.0479 4.52421 5.2443 2.21744 2.17332 2.76048 1.347
threshold=1.0000000180025095e-35 98.645000000000024 201.09500000000003 1.0000000180025095e-35 4.5000000000000009 109.31000000000002 3.5000000000000004 235.60905802226515 432.99000000000007 437.07000000000011 325.48489531745287 361.82500000000005 18.30433203403096 7.2282339532160771 12.818463840840272
decision_type=2 2 2 2 2 2 2 2 2 2 2 2 2 2 2
left_child=5 2 4 7 6 -1 -2 8 12 10 -9 -5 13 -4 -15
right_child=1 -3 3 11 -6 -7 -8 9 -10 -11 -12 -13 -14 14 -16
leaf_value=0.015811482142645453 -0.02996061335908641 0.03494246584406107 0.0093511182716846924 -0.028643897324157022 -0.0081197204677240752 0.032568296088190181 -0.018224549911915067 0.00020934859423315071 0.01519093452484146 -0.0045048182858687755 0.0103429504129987 -0.019328804675014317 0.011438072832954272 -0.0021555090930037049 0.0043913823758889295
leaf_weight=50.514020167291164 246.80216527730227 64.011069759726524 58.409236907958984 86.600016430020332 71.022134095430374 195.79915472865105 51.187412336468697 95.156774267554283 74.557325184345245 51.762749791145325 94.440426304936409 58.646358281373978 51.487982824444771 52.766676440834999 56.304078057408333
leaf_count=307 1614 423 238 557 398 1642 294 385 311 211 385 339 210 214 229
internal_value=6.29745e-05 -0.00638806 -0.00893948 -0.000596835 -0.0242537 0.0292316 -0.0280288 0.00603656 0.00833375 0.00316942 0.00534984 -0.0250649 0.00590128 0.00408084 0.00109182
internal_weight=1359.47 1113.15 1049.14 680.132 369.012 246.313 297.99 534.885 293.525 241.36 189.597 145.246 218.968 167.48 109.071
internal_count=7757 5808 5385 3079 2306 1949 1908 2183 1202 981 770 896 891 681 443
is_linear=0
shrinkage=0.03


Tree=47
num_leaves=17
num_cat=0
split_feature=8 12 17 1 7 17 13 17 17 13 5 17 16 16 16 11
split_gain=273.21 124.673 142.443 117.447 27.4124 11.2324 3.50319 4.77203 4.26581 4.93984 2.48508 2.23375 2.04579 2.60199 1.26955 1.13809
threshold=1.0000000180025095e-35 98.645000000000024 201.09500000000003 1.0000000180025095e-35 0.28443205847448144 109.31000000000002 235.60905802226515 432.99000000000007 437.07000000000011 325.48489531745287 3.5000000000000004 314.99000000000007 18.30433203403096 7.2282339532160771 12.818463840840272 136.50000000000003
decision_type=2 2 2 2 2 2 2 2 2 2 2 2 2 2 2 2
left_child=5 2 4 6 10 -1 7 12 9 -8 15 -5 13 -4 -15 -2
right_child=1 -3 3 11 -6 -7 8 -9 -10 -11 -12 -13 -14 14 -16 -17
leaf_value=0.015482517204317821 -0.03017486881537022 0.034633666723518045 0.0090824162227054975 -0.029356786451806536 -0.002901242473088322 0.032358120125801505 0.00020310317311240982 0.01478058406162186 -0.004368998341119916 0.01004594595240408 -0.019806756316853601 -0.020141300250627599 0.011112488286644764 -0.0020911104018003293 0.0042625296147262483 -0.023383948134871237
leaf_weight=50.057318389415741 194.56742363423109 62.669129721820354 58.34886746108532 67.643005833029747 50.166076838970184 191.23117323219776 95.155741646885872 74.345555141568184 51.785936012864113 94.331991627812386 53.274960145354271 75.466291904449463 51.422286689281464 52.775212347507477 56.281383246183395 65.947057403624058
leaf_count=307 1331 423 238 450 209 1642 385 311 211 385 320 446 210 214 229 446
internal_value=6.2465e-05 -0.00624863 -0.0087384 -0.000580316 -0.0238631 0.0289584 0.00586419 0.00809868 0.00307588 0.00519563 -0.0271566 -0.0246886 0.00573162 0.00396126 0.00105542 -0.0285614
internal_weight=1345.47 1104.18 1041.51 677.556 363.956 241.288 534.447 293.173 241.274 189.488 313.789 143.109 218.828 167.405 109.057 260.514
internal_count=7757 5808 5385 3079 2306 1949 2183 1202 981 770 2097 896 891 681 443 1777
is_linear=0
shrinkage=0.03


Tree=48
num_leaves=18
num_cat=0
split_feature=8 7 17 1 12 17 16 12 5 0 7 7 5 16 18 7 17
split_gain=260.868 132.558 137.425 89.3059 48.3141 13.1539 8.59438 6.26503 5.42562 3.11225 2.28206 3.42218 4.38117 3.6164 2.88007 1.10316 0.647639
threshold=1.0000000180025095e-35 0.30066348200882159 199.78000000000003 1.0000000180025095e-35 61.570000000000007 107.795 7.9066068270435315 50.870000000000012 3.5000000000000004 4.5000000000000009 0.050298380082856274 0.19891943371195606 2.5000000000000004 15.411850822334523 2.5000000000000004 0.24972686803512895 320.07000000000005
decision_type=2 2 2 2 2 2 2 2 2 2 2 2 2 2 2 2 2
left_child=5 2 4 7 8 -1 -5 9 15 10 -4 12 14 -13 -12 -2 -8
right_child=1 -3 3 6 -6 -7 16 -9 -10 -11 11 13 -14 -15 -16 -17 -18
leaf_value=0.014189261328419267 -0.028505997069808397 0.038849994413916629 0 -0.010393765651274971 0.00303192191757564 0.032150338046660683 -0.029812612366222194 0.013971619111217673 -0.018427078278057198 -0.0017557989225353142 0.0066459487235922265 -0.0024097506247427545 0.0015364080035369218 0.0077631054198630351 0.0159719516882782 -0.035926968554336969 -0.021673107192766765
leaf_weight=51.297953926026821 198.69471383839846 55.117233857512474 70.595605000853539 52.605721056461334 50.856538400053978 186.74115855246782 51.325479984283447 63.083051919937134 52.888550907373428 72.650116428732872 69.40822958946228 71.414660811424255 63.23570741713047 53.727302148938179 67.38874888420105 53.872207202017307 50.133160069584846
leaf_count=316 1402 259 285 300 321 1642 361 329 317 295 282 290 257 219 274 323 308
internal_value=-4.26868e-05 -0.00623405 -0.00865095 -0.000769343 -0.0237513 0.0283804 -0.0208612 0.00504053 -0.0282573 0.00379216 0.00484936 0.00590934 0.00836196 0.0018519 0.0113908 -0.030216 -0.0260638
